437 100
plane 0.32249 -0.36477 -0.11703 -0.079791 -0.90326 0.75815 -0.27269 0.17411 -0.22152 -0.13974 -0.63628 0.24965 -0.39821 0.018929 0.075948 -0.24016 0.28818 -0.16113 0.29581 0.095265 -0.18595 0.06574 0.37228 -0.62238 -0.27894 -0.85811 -0.46142 0.80343 -0.13602 -1.1291 0.40943 0.43248 0.47878 0.27509 -0.27136 -0.22789 0.45048 -0.62146 -0.34125 0.5202 -0.36487 -0.3046 0.55419 -0.26501 0.094567 -0.39756 -0.076301 -0.69655 -0.79115 0.009675 -0.09213 -0.21132 0.43722 0.29996 -0.32136 0.039392 0.091318 -0.18431 0.16812 -0.34026 -0.14222 -0.26452 -0.013766 -0.35507 -0.17005 -0.52382 -0.39394 -1.5848 0.59715 -0.18361 0.088238 -0.26965 -0.025761 0.21184 0.29354 0.16799 0.86858 0.20016 -0.12719 -0.80296 0.1926 -0.29057 0.4274 0.67518 -0.011863 -0.37877 -0.1311 0.01227 0.35251 -0.04666 0.31297 0.33501 0.072134 0.22124 0.21802 0.3863 -0.30466 -0.08821 0.14309 -0.21066
stupid 0.21016 -0.26245 0.57074 1.1656 -0.024789 0.99384 0.38276 0.38991 -0.40951 0.38491 -0.38494 0.46166 0.10433 -0.092013 -0.47737 -0.65585 -0.16757 0.3387 -0.059222 -0.66155 -0.12763 -0.35626 0.064471 -0.31976 -0.55168 -0.028016 0.66923 0.30195 -0.10815 -0.27507 0.5939 -0.64016 0.094524 0.028183 -0.60685 0.15054 -0.33071 -0.44867 -0.40091 -0.16653 -0.41907 -0.75232 0.16259 -0.11549 0.38894 0.11952 -0.13607 0.30869 0.12695 0.53294 0.01045 -0.16749 0.018235 0.6253 -0.47731 -0.3794 -0.060645 -0.27166 0.46154 -0.62098 -0.24766 -0.0060999 0.42282 -0.55172 -0.13609 0.43788 -0.32306 -0.47213 0.21359 -0.15836 0.29501 -0.58036 -0.36176 0.024406 0.16249 0.32556 1.0594 -0.096031 -0.56063 -0.72931 -0.12312 -0.19887 0.035561 0.42912 -0.18598 0.23955 -0.55074 -0.088796 0.14661 -0.15332 0.11766 -0.23887 0.17195 -0.03044 0.1231 -0.3788 -0.24402 0.346 0.17268 -0.035955
egg -0.29226 -0.71954 -0.44809 0.19154 -0.32884 0.55496 0.33412 0.44857 -0.4298 0.88532 -0.039271 -0.39936 0.051675 -0.34678 -0.17035 -0.19994 -0.51947 -0.0055641 -0.19905 -0.64519 -0.62749 -0.085015 1.1304 0.16118 -0.55186 -0.6608 0.10224 -0.079076 -0.19069 -0.28476 0.90727 0.30108 0.23375 -0.73163 -0.023461 1.1162 -0.402 0.36425 0.13986 -0.12472 -0.14321 -0.59065 0.29853 -0.25227 -0.15624 -0.019813 0.036968 0.45164 -0.06928 0.16251 0.3878 -0.31549 -0.18319 0.9041 -0.27645 0.20231 0.48118 0.097855 -0.060196 -0.21659 0.19386 0.17463 -0.25244 -0.62483 -0.0014463 0.02855 -0.50164 -0.93834 0.74382 0.05988 0.3368 -0.49196 -0.50038 0.14472 0.35043 0.054663 0.59188 0.41895 -0.29928 -0.77352 -0.67597 -0.15032 0.082497 -0.23294 0.17366 0.58474 0.29615 0.072438 0.32684 0.1305 1.2943 0.084327 0.19584 0.18242 -0.15008 -0.18765 -0.63488 -0.035439 -0.14907 0.29893
year -0.022649 -0.072005 0.021701 0.24235 0.40249 0.30017 -0.21716 -0.124 -0.50586 0.78208 -0.55533 -0.035924 -0.47091 0.037572 -0.045636 -0.049084 0.34914 0.22123 0.012856 -0.20882 -0.72075 -0.06305 0.48597 -0.25645 -0.024684 -0.51326 -0.26237 0.61499 0.35152 -0.2142 -0.12713 -0.028613 0.15913 0.099171 0.055104 -0.047206 0.24666 -0.065427 -0.24088 0.59115 -0.38675 -0.24749 0.28291 0.43053 0.25028 -0.4273 -0.15118 -0.017806 -0.035236 0.4905 0.028776 -0.25321 0.0090853 0.614 -0.75633 -0.26735 0.27541 -0.23666 -0.25123 -0.29524 0.1177 0.30411 -0.17378 -0.087611 0.21041 0.64268 -0.27911 -0.3727 0.29991 0.12537 0.076919 -0.27613 -0.17165 -0.57022 0.16788 -0.16859 0.091466 -0.11723 -0.37821 -0.66444 -0.38477 0.28391 0.5762 0.27608 0.61245 -0.060689 -0.17684 0.35524 -0.35646 0.39626 0.21244 -0.10058 0.27971 0.077164 -0.15323 -0.47671 -0.1984 0.79796 0.27622 -0.01934
psychiatry 0.78113 0.68979 0.31396 0.28798 0.071787 0.52055 -0.12447 -0.24611 -0.28775 0.23986 0.070751 0.064519 0.054876 0.18625 0.077887 -1.3271 -0.21978 -0.30201 0.47085 -0.21143 -0.048083 -0.30302 0.28014 -0.37026 -1.6335 0.22427 -0.46555 0.022309 -0.48143 -0.2632 0.24605 -0.19318 0.50995 -0.32195 -0.79559 0.58059 -0.32916 -0.16046 0.09352 -0.14728 -0.469 0.17358 -0.22812 -0.16891 0.66389 0.70688 0.030575 0.13292 -0.0022875 0.67391 -0.41835 -0.14922 -0.062616 -0.14708 -0.34977 0.10422 0.10337 0.40555 -0.39888 -0.90466 0.11431 0.61536 -0.5832 0.26731 -0.69944 0.31219 -0.20853 -0.45038 0.25158 -0.022009 0.67843 0.63776 -0.26076 -0.63241 0.23629 0.090964 0.37115 0.10629 -0.53148 -0.92378 -0.18953 0.16658 0.93692 0.28527 0.34514 0.20663 0.082563 0.41306 -0.42214 0.68253 0.77576 0.75181 0.21507 0.43433 -0.36237 0.36838 0.25247 0.30433 -0.39955 0.002839
asylum -0.11339 0.6358 0.61085 0.39975 -0.09502 0.55009 -0.079802 0.13435 -0.35986 0.2431 -0.40801 -0.077264 0.027499 0.36423 0.9041 -1.0151 -0.76057 0.40303 0.60817 -0.19134 0.31394 0.37219 -0.17618 0.021747 -0.30121 -0.36996 -0.068471 0.84043 -0.042502 -0.68534 -0.1008 -0.081501 0.94371 0.40653 -0.10276 0.58786 0.15331 -0.36784 -0.18634 0.72639 -0.35878 0.2714 0.54289 0.027972 0.20801 -0.14309 -0.10134 0.06261 -0.22639 0.53683 0.07606 -0.59425 -0.63494 -0.17776 -0.009179 -0.36118 0.33171 -0.15448 0.38219 -0.61354 -0.089033 -0.094524 -0.47754 0.0016484 -0.021064 0.033961 -0.36295 -1.2407 0.4908 -0.23687 0.16208 -0.68498 -0.95658 -0.51524 0.95302 -0.19212 0.95797 0.23062 -0.38992 -0.20667 -0.44495 0.058093 0.66275 0.62465 -0.55982 0.076557 -0.49869 0.23623 -0.31703 0.67675 0.88512 -0.14839 0.091182 0.5114 -0.031018 0.39255 -0.34534 0.061118 -0.21505 0.14853
manslaughter -0.31153 0.41595 0.44262 -0.15733 -1.1414 0.48083 0.46582 0.13823 0.23723 0.42128 -0.19831 -0.16704 -0.37296 0.50672 -0.73252 -0.9595 -0.31805 0.32176 0.54251 -0.62235 -0.35137 -0.049814 0.22526 -0.057173 -1.0902 -0.21999 -0.35942 0.78071 0.45929 -0.19102 -0.49209 0.59553 0.65697 -0.032389 -0.18993 0.62862 0.18844 -0.63237 -0.54218 -0.41387 -0.18417 0.14157 0.18636 0.33585 0.50799 0.36832 -0.55246 0.15753 -0.089215 0.70136 0.040693 -0.22408 -0.055713 0.45438 -0.34176 0.21548 0.93423 0.7636 0.45256 -0.60597 -0.27418 0.47178 0.41105 -0.12325 -0.76396 0.36904 -0.20607 -0.26372 0.531 -0.68522 0.4069 0.38661 -0.1382 -0.34773 0.8587 0.046102 0.080783 -0.34855 0.26791 -1.3976 0.26373 0.099594 0.36611 1.1682 -0.16001 0.74152 0.12211 0.39862 -0.42321 0.4629 0.31111 -0.1039 0.72071 0.67391 -0.64353 -0.32625 0.28971 -0.013982 -0.015673 -0.33215
music -2.1499E-4 0.2513 0.70506 0.53673 0.14777 0.41965 0.27219 0.33772 0.067807 0.3515 -0.061885 0.17636 -0.44398 -0.14334 0.32253 -0.31899 0.54514 -0.40653 -0.033175 -0.41667 -0.48198 -0.61422 0.50692 -0.29955 -0.92732 -0.2552 -0.49906 0.40769 0.040584 0.3101 -0.31659 -0.27295 0.20289 0.047625 0.2145 -0.013087 -0.21703 -0.86272 0.10608 0.052709 -0.4059 -0.85398 0.13338 -0.22148 0.093077 0.37973 -0.34766 0.29252 0.077898 0.44703 -0.11075 0.15156 -0.49893 0.34145 -0.57175 -0.20393 0.4239 -0.13337 -0.45402 -0.3355 -0.080099 0.30515 -0.71358 0.16701 -0.22719 -0.79146 -0.40187 -0.44824 -0.49159 -0.040123 0.54301 0.44171 -0.42293 0.29288 -0.26288 0.57893 0.31362 0.089102 -0.65682 -0.74331 -0.56841 0.031306 0.21625 0.57268 0.36334 0.020312 -0.36437 0.41933 -0.0069626 0.17764 0.44254 -0.22699 0.55739 0.3235 0.18539 -0.20941 -0.5154 -0.4102 -0.25852 -0.14888
record 0.1252 -0.053362 0.38146 0.12321 0.30812 0.11109 0.62472 -0.05004 -0.24946 0.53112 -0.06955 0.084486 -0.34119 0.090306 0.067918 -0.56033 0.086392 0.097589 0.5418 -0.93654 -0.40222 -0.077952 0.27325 -0.64228 -0.4454 -0.76273 -0.3479 -0.0042175 0.43966 -0.23763 -0.44351 -0.10479 -0.35843 -0.018279 0.12559 -0.16969 0.43115 0.1671 -0.76422 0.31113 0.093245 -0.020395 0.64397 -0.0059405 -0.055337 -0.43288 -0.20731 -0.13325 0.035916 0.39497 -0.50657 -0.34204 -0.15721 0.25837 -0.84341 -0.081333 0.5187 -0.27193 0.12266 -0.31204 0.19628 0.51763 -0.044002 0.21063 0.7874 -0.072378 -0.31626 -0.68982 -0.14104 -0.1524 0.01653 -0.052122 -0.38883 0.1291 -0.046293 0.1153 0.071524 -0.34143 -0.27572 -0.52074 -0.61729 -0.24078 0.439 0.51765 0.41732 0.27956 0.27581 0.30106 -0.023344 -0.053498 0.17093 -0.44141 0.26857 -0.44849 0.26828 -0.42043 -0.38809 0.72654 -0.044419 0.077161
energy -0.069913 -0.50535 0.75109 -0.3789 -0.0013711 0.10671 -0.38034 0.27216 -0.11468 0.41209 -0.51552 0.33008 -0.22688 -0.48277 -0.3238 -0.42396 0.35159 0.39119 -0.074118 -0.62224 -0.37078 -0.36345 0.46338 -0.651 -0.83494 -0.2893 -0.39185 0.045119 -0.71664 0.012872 -0.36373 -0.26091 0.12171 0.34666 -0.17287 -0.16577 0.19115 0.0032016 0.074507 0.11888 -0.23559 -0.38445 0.56271 -0.054871 -0.20476 0.12994 0.18624 0.50418 0.18506 0.62255 -0.20869 0.21445 0.096782 0.17288 -0.25654 0.1106 0.49663 -0.35946 0.078602 -0.35505 0.37813 0.49202 -0.65738 -0.13715 -0.66418 0.097719 -0.69339 -1.1298 0.048413 0.17333 0.126 -0.50995 -0.021254 -0.55838 0.30282 -0.38812 0.26338 -0.25936 -0.076684 -1.2287 -0.38049 0.14343 -0.16725 0.32935 -0.048254 -0.19977 0.2323 0.30956 -0.064206 -0.24087 0.63304 -0.44994 0.22533 0.012615 -0.10983 0.18793 -0.27635 -0.19487 -0.25232 1.0984
announcement 0.30445 0.096566 -0.0049066 0.18585 -0.2016 0.50291 0.08222 0.31678 -0.41835 -0.015094 -0.48721 -0.10669 -0.74591 -0.2672 -0.18944 -0.069862 0.40966 0.28641 0.13068 0.1296 0.17589 0.039947 0.97979 -0.52482 -0.42499 -0.57421 -0.42493 0.76137 -0.24422 -0.07789 -0.15536 -0.079461 -0.43279 -0.098934 -0.014598 -0.1932 -0.073678 -0.46928 0.093604 0.56279 -0.43029 -0.071248 -0.061213 0.42779 0.30743 -0.32785 -0.17229 0.17558 0.077047 -0.036206 -0.42684 -0.20622 0.0072298 0.23691 -0.026669 -0.1053 0.81536 -0.2248 0.13922 -0.28269 0.4412 0.10198 0.28933 0.30396 -0.2366 0.38324 -0.27493 -0.44704 0.03153 -0.244 0.54067 -0.59518 0.13963 -0.21397 -0.035 -0.30423 -0.048425 -0.035028 -0.55265 -1.0402 -0.51538 0.051985 0.20786 0.64662 -0.26924 -0.092446 -0.65794 0.30422 0.015694 0.010764 0.1855 -0.0057132 -0.26353 0.16661 -0.5308 -0.64466 -0.69173 0.59623 0.045725 -0.12685
mile -0.36375 -0.79449 -0.038378 9.8639E-4 -0.4303 0.63425 0.31625 0.0022908 0.072629 -0.063945 -0.23606 0.52424 -0.71253 -0.56663 -0.16624 0.11657 0.10168 -0.039482 0.23298 -0.62815 -0.72561 -0.3937 0.22534 -0.50484 -0.088775 -0.55326 -0.61082 0.70471 -0.1887 -0.34777 0.036259 0.38099 0.49059 0.77686 -0.31056 0.5693 0.2534 -0.012625 -0.07161 0.62321 0.028316 0.25958 0.24776 -0.075745 0.27522 -0.31368 -0.12548 -0.10574 -0.64337 0.71948 0.17062 -0.063006 0.12765 0.38892 -0.15776 -0.091151 0.84485 -0.91908 0.19808 -0.74241 -0.21503 0.035528 0.14204 -0.44676 0.28108 0.57475 0.38327 -0.31655 -0.21714 -0.31188 0.30712 0.3318 -0.13872 -0.02367 0.42334 -0.12784 0.75148 0.31875 0.16637 -0.40757 -0.35924 0.25076 0.35208 0.3131 0.69384 0.27275 0.41047 0.46939 0.31661 0.35405 0.15677 -0.031857 0.082899 0.11613 -0.1288 0.25025 -0.17595 0.54739 0.23985 0.49238
airport 0.56617 -0.037019 0.028155 0.24911 -0.41547 0.54035 -0.079133 -0.045384 -0.19998 -0.55026 -0.30128 0.098156 -0.60118 -0.23837 0.32362 -0.6336 0.49422 -0.13931 0.10163 0.55295 -0.59358 0.14585 0.29419 -0.30154 -0.23892 -0.78184 -0.24017 0.67788 -0.082536 -0.64407 0.2399 0.30297 0.6638 0.64395 0.033776 0.54816 0.33635 -0.34216 -0.29602 0.70256 -0.52651 0.068566 0.88193 0.17335 0.11388 -0.24469 -0.18663 -0.7986 -0.36976 0.39636 -0.36955 -0.16358 0.18458 0.22662 -0.40921 -0.14694 0.37143 -0.14808 0.39823 -0.36492 -0.47015 0.12567 -0.032646 -0.36685 -0.50935 -0.45785 -0.61609 -1.1572 0.2129 -0.043772 0.43259 -0.55829 -0.16151 0.015209 0.015551 -0.086987 0.70687 0.32017 0.32568 -0.9651 -0.22068 0.03081 0.43593 0.54758 -0.17614 -0.096578 -0.2079 0.16207 0.53321 0.40662 0.036303 0.14275 0.019878 0.46369 0.046589 0.3359 -0.18564 -0.20344 0.25177 0.36876
population -0.27639 0.23978 0.080566 0.25074 -0.049675 0.027255 -0.050951 -0.028441 -0.4351 0.099491 -0.32041 -0.01768 -0.2339 0.095201 -0.21675 -1.1862 -0.41359 -0.010975 -0.32911 -0.47474 -0.70107 0.0043057 0.68913 -0.25303 -0.37974 -0.11444 -0.41582 0.12872 0.022722 -0.68277 0.24001 -0.1425 0.52627 -0.22913 0.18347 0.14312 0.06162 0.47412 -0.089688 0.28328 -0.53137 0.07071 0.14184 -0.45713 0.43966 -0.4144 -0.52979 0.44083 -0.40061 0.59813 0.36941 -0.12932 -0.066172 0.12915 -0.041288 0.075729 0.20304 -0.76265 -0.044424 -0.98506 -0.21197 0.087409 -0.25869 -0.15314 -0.059052 -0.19442 -0.8832 -0.72075 0.23722 0.25418 -0.093515 -0.32723 -0.38722 -0.81227 0.88922 -0.62367 0.63811 0.488 -0.14768 -0.13469 -0.91756 0.3752 0.24394 0.57197 0.74171 -0.29453 -0.13288 0.81643 0.12572 0.12692 0.33893 -0.062401 -0.068702 0.085715 -0.10512 0.19666 -0.29684 0.094401 0.30429 -0.071141
planning -0.081134 0.10203 0.10358 0.4032 -0.0085541 0.48206 0.25411 0.24501 -0.32298 0.0068574 -0.27073 0.043509 -0.65612 -0.1832 0.060801 -0.57563 0.32886 0.10243 -0.54196 -0.27848 -0.15421 0.37834 0.14629 -0.47461 -0.83518 -0.18042 -0.068328 0.68197 -0.17962 -0.39935 -0.18004 -0.39469 0.29236 0.059608 -0.16489 0.11743 -0.0071417 -0.50577 -0.03247 0.94545 -0.20965 -0.013187 0.32945 0.64575 0.065111 -0.15163 0.024292 0.21166 -0.25016 0.36658 -0.29825 -0.42172 -0.080052 0.21799 -0.26571 -0.20716 0.055645 0.18917 -0.27627 0.16774 0.043735 0.11067 -0.060663 -0.10617 -0.26687 0.39421 -0.17551 -0.60301 -0.02061 0.14837 0.39436 -0.14389 0.36254 -0.34827 0.44172 -0.37678 0.11566 0.12317 -0.31015 -1.0331 -0.23678 -0.21923 0.044294 0.82781 0.38393 0.25285 -0.33406 0.189 0.1949 0.033073 0.17196 -0.34981 0.30773 0.056733 -0.20447 -0.09295 -0.086464 -0.26872 -0.23392 0.3425
canyon 0.033203 -0.11239 -0.21815 0.66991 -0.53052 0.1362 -0.16267 0.23925 0.20036 -0.20306 -0.24445 0.11952 -0.71721 0.045153 0.12875 -0.0084063 0.38801 -0.30894 0.50225 -0.57285 -0.3645 -0.31891 0.9372 -0.9602 -0.84268 -0.55555 -0.63261 0.32707 -0.20224 0.0821 0.56399 0.47412 0.48121 0.55885 -0.68534 0.3805 0.21421 -0.05364 0.2146 0.25467 0.27075 -0.33112 0.55519 -0.40872 0.62481 -0.2144 -0.33514 0.33642 -0.84998 0.12083 0.57761 0.26987 -0.08558 0.15547 -0.62034 0.11025 0.78055 -0.72812 0.40526 -0.43683 -0.23019 -0.10789 0.085748 -0.17584 0.24506 0.22433 0.7183 -0.89868 0.20819 -0.56261 0.25772 -0.015878 -0.83114 0.028752 -0.060938 0.38259 0.74942 0.74651 0.13604 -0.37 -0.58971 0.14468 -0.12658 0.73823 0.62339 0.057809 0.52093 0.27804 0.38462 -0.47335 0.34927 -0.38736 0.30856 0.14659 -0.086448 0.15288 0.071734 -0.15064 -0.34181 0.10515
delay 0.23025 0.18594 -0.0016362 -0.13529 -0.049451 0.74381 0.29775 -0.011426 -0.61314 0.16937 -0.29218 -0.3751 -0.61211 -0.33121 -0.51361 0.10696 0.025692 0.29589 0.13869 -0.3896 0.66806 0.36657 0.13429 -0.54975 -0.55984 -0.53307 0.057371 0.65625 0.06591 -0.32767 -0.22966 0.27717 0.20425 -0.097629 0.60375 0.17089 0.14993 -0.34622 -0.45779 0.52338 -0.56055 -0.062043 0.12453 0.17321 0.23779 0.16789 -0.12844 0.11354 0.06308 0.35058 -0.65354 -0.35329 -0.054389 0.1511 -0.38455 0.05618 0.21832 -0.41132 -0.16317 -0.46554 0.55945 0.10693 -0.46675 0.019411 -0.28266 0.28955 0.20935 -0.67345 0.40425 -0.16969 0.36987 -0.6172 -0.047043 -0.081463 0.39116 -0.25474 0.39723 0.16274 -0.27131 -1.2205 -0.20254 -0.17825 0.16074 0.97174 -0.072472 0.21324 -0.51802 0.3462 0.35426 -0.27445 -0.01033 0.20615 0.31107 0.032429 -0.10061 -0.64213 -0.32248 -0.063801 0.083356 -0.0059841
size -0.32978 -0.13424 -0.38753 0.30839 -0.4052 -0.014981 0.085449 0.12963 -0.5735 0.14301 -0.1909 0.19843 -0.091073 -0.48742 -0.4621 0.11294 -0.021006 0.048836 -0.1857 -0.23779 -0.48032 -0.027331 0.72951 -0.48277 -0.44793 -0.80598 -0.043721 0.19796 -0.29118 -0.75758 0.39969 -0.39391 0.26551 -0.035597 0.30561 -0.14779 -0.284 0.10678 0.091845 0.60902 -0.3814 3.7161E-5 0.17506 0.028893 0.30502 -0.088811 0.19776 0.20044 0.27838 0.33086 0.4812 -0.0074577 0.20067 0.22687 -0.34771 0.2003 0.53359 -0.56662 -0.4455 -0.53871 0.23973 0.050577 0.54537 -0.21115 0.14432 -0.50111 -0.85137 -0.84098 0.15351 0.49973 0.27564 -0.12549 -0.45894 -0.34985 0.51181 -0.10702 0.40092 -0.097312 -0.067897 -0.51193 -0.25549 0.2707 0.16915 0.73454 0.70938 0.30561 0.22914 0.1739 0.23786 -0.33352 0.56214 0.010694 -0.024095 0.045393 0.058342 -0.23743 -0.10218 0.076992 0.27046 0.1078
peace 0.077781 0.40682 0.11288 0.52556 0.20121 0.4166 -0.44358 0.28609 0.67799 -0.092428 -0.47727 -0.2095 -0.72818 0.71242 -0.20451 -0.25803 -0.14866 -0.087706 0.063979 -0.19827 0.10052 0.27295 0.6443 -0.49764 -0.37566 0.022244 -0.090239 1.0118 0.18638 0.1086 0.34535 0.23477 0.11705 -0.20771 -0.12564 0.31846 -0.81816 -0.35941 0.17852 0.31688 0.19077 -0.36968 1.2174 0.17251 0.56899 -0.22372 -0.77865 0.35201 0.23398 0.66288 -0.1137 -0.73898 0.005622 0.42447 -0.29791 -0.39401 0.1239 -0.45874 0.031963 -0.71987 0.37195 1.2135 -0.86205 -0.065763 -0.04532 -0.44438 -0.53233 -0.69884 0.37373 -1.2625 0.30837 -0.20793 -0.098558 -0.29195 0.31634 0.027577 0.47915 -0.13728 -0.4257 -1.1836 -0.56049 0.45805 0.40293 0.48229 -0.37773 -0.31287 -0.37423 -0.25074 0.32025 0.11733 0.61225 -0.70803 0.063429 0.359 -0.35154 0.34438 0.10388 0.29004 -0.36831 0.49478
science 0.096122 -0.44856 0.7186 0.25074 0.071782 0.44398 -0.27946 -0.30315 -0.45637 0.1248 -0.045704 0.53564 0.17672 0.074058 0.32445 -0.47156 -0.10081 -0.11168 0.506 -0.25013 -0.18458 0.28345 -0.10839 -0.66942 -1.0928 -0.017896 -0.33179 0.1289 -0.53841 -0.30469 0.34959 -0.39373 0.36221 -0.0033902 -0.31161 -0.26511 -0.34695 -0.22276 0.13225 -0.36167 -0.26048 -0.33948 0.15636 -0.35825 0.6004 -0.11955 0.072513 0.51431 0.022509 0.069303 -0.32825 -0.42519 0.0017723 0.51001 -0.56146 0.12564 0.19827 0.22947 -0.27548 -0.45506 0.21914 0.64484 -0.61578 0.16168 -0.068603 0.3634 -0.37654 -1.0004 -0.20657 0.14161 0.48534 0.014953 -0.14786 -0.48027 0.21543 -0.10949 0.66801 -0.078195 -0.91929 -0.59903 0.037902 0.21469 0.57828 0.35008 0.37935 -0.10637 -0.28048 0.443 0.14752 -0.28768 0.74111 0.33109 0.59464 0.55623 -0.19925 0.0094896 -0.1577 0.0091174 -0.46736 0.28236
dawn -0.13221 0.31426 0.029515 0.54712 -0.38276 0.56955 0.46861 -0.035404 -0.060395 -0.22371 -0.39431 0.35177 -0.48834 0.27835 0.0037253 -0.31441 0.18628 -0.31299 0.30991 0.2743 -0.49314 0.10016 1.0153 -0.2885 -0.37677 -0.79279 -0.12659 0.73775 -0.30337 0.14445 -0.25896 0.13144 0.29418 0.45846 -0.44589 0.40506 0.20791 -0.48346 -0.24316 -0.082865 -0.38552 -0.5968 0.5622 0.32795 0.25777 0.022433 0.058902 0.068014 -0.52683 0.47177 0.25114 -0.42641 0.10886 0.23237 0.040543 -0.11742 0.088362 -0.5813 -0.18685 -0.32271 -0.13873 0.74972 0.12757 -0.4323 -0.14801 0.29251 0.10063 -0.63434 0.50004 -0.3888 0.38726 0.069247 -0.17202 0.35599 0.20996 0.069664 0.36052 0.33059 -0.038891 -0.79727 -0.21091 0.38372 0.34497 0.20693 0.17823 -0.46016 0.045727 0.55699 0.29764 -0.54682 0.23638 -0.33443 -0.0051496 0.044649 -0.63901 0.20758 -0.73787 0.12916 0.01066 0.070811
brother 0.3372 -0.048457 0.17212 -0.011612 -0.25614 0.77939 0.12935 0.43603 0.14247 -0.27142 -0.65592 0.2909 -0.3795 0.24129 0.39594 -0.081944 -0.21322 -0.14875 0.040177 -0.23459 -1.0346 -0.46653 0.34671 -0.39452 -0.34521 -0.42038 -0.34069 0.65133 -0.3433 0.090492 -0.443 0.083192 -0.042378 -0.73785 -0.43252 -0.010839 0.041115 -0.53461 -0.76086 0.0043557 -0.87413 -0.062092 0.092814 0.37007 0.53067 -0.023167 -0.29426 0.037206 -0.15846 0.46378 0.074813 0.1449 0.11859 -0.15341 -0.29076 -0.1441 -0.183 0.22785 2.1036E-4 -0.50667 0.4565 -0.3515 0.32921 -0.40402 -0.33297 -0.27533 -0.12247 -0.72 0.79024 -0.46344 -0.067814 0.23644 -0.095636 -0.11726 0.38642 0.020068 0.29153 -0.25827 -0.41369 -0.76477 -0.24863 -0.11549 0.014391 0.7647 0.16406 0.37498 -0.49327 0.11804 -0.51798 0.3795 -0.027575 -0.082564 0.61475 0.23594 0.10473 0.17317 0.084969 0.18749 -0.23473 -0.20937
wine -0.03803 -0.35908 0.46761 0.43989 -0.13064 0.22883 -0.29913 0.080164 -0.1775 0.63217 0.41074 -0.26182 -0.21927 -0.088124 0.0012446 -0.61523 0.41184 -0.081062 -0.074963 -0.3015 -0.68108 -0.45428 0.40638 -0.30274 -0.79506 -0.43137 -0.54881 -0.24076 0.039295 -0.16587 0.12893 0.27742 0.14357 -0.13726 0.06339 0.99519 -0.2928 -0.22856 0.077067 0.31829 -0.58751 -1.0683 0.60043 -0.27522 0.13047 0.32788 -0.044538 -0.30801 0.16637 0.20949 -0.097328 0.69922 -0.37977 0.60279 -0.49793 -0.2936 0.476 -0.3787 0.29447 -0.174 0.1049 -0.14938 -0.31662 -0.55241 -0.32173 -0.30687 -0.26689 -0.89564 0.30572 -0.075108 0.022481 0.29143 -1.1316 0.35394 0.26837 0.19418 0.026138 -0.013196 -0.19749 -0.74682 -0.27241 0.57039 -0.0057698 -0.033465 0.38482 0.083346 0.10443 0.26488 0.0046483 0.24135 1.07 -0.45044 0.090315 0.17592 -0.41748 0.05846 -0.31205 0.086777 -0.29786 0.4618
object -0.086238 -0.49636 0.19372 0.42536 -0.27075 0.46099 0.058811 0.2519 -0.34778 0.050816 -0.19212 0.047047 -0.4435 -0.1118 -0.18059 -0.018055 0.16525 -0.02104 0.18861 -0.62309 -0.16205 -0.021542 0.38254 -0.28964 -0.89783 -0.63355 -0.20531 0.7195 -0.38141 -0.49579 0.24319 -0.47795 0.3632 -0.13668 0.031606 0.32712 0.19214 -0.33454 -0.022041 0.072789 -0.047023 -0.50086 0.08848 -0.18481 -0.10397 -0.28246 -0.18223 0.28629 -0.048009 0.46571 0.27707 -0.167 0.52234 0.1471 -0.52886 -0.38113 0.40391 -0.37951 -0.059044 -0.32527 0.14719 0.27264 0.20265 0.17646 -0.23046 -0.31253 -0.092099 -0.56127 0.35983 0.11136 0.37277 -0.054568 -0.69227 0.15018 0.27934 0.24215 0.57185 0.22262 -0.55367 -0.21675 -0.36438 0.025411 0.20671 0.89579 -0.013836 0.045986 0.0654 -0.36008 0.21365 -0.3078 0.26177 0.20516 0.21629 0.35631 0.03838 -0.084313 -0.093299 -0.15019 0.24956 0.26478
attitude 0.34794 -0.012408 0.35484 1.0268 -0.30924 0.51527 -0.057568 0.32063 -0.27343 0.0084411 -0.026119 0.57596 -0.23667 0.44097 -0.52856 -0.41553 0.51858 -0.099764 0.1479 -0.17028 -0.39747 -0.24795 0.058402 -0.38829 -0.83666 -0.24924 0.0681 0.07473 -0.33536 -0.64781 0.20002 -0.53949 0.070463 -0.10384 -0.37963 0.042975 -0.085049 -0.36944 -0.020693 -0.091086 -0.43806 -0.12886 0.42433 0.22249 0.06859 0.085102 -0.31204 0.5229 -0.1115 0.85636 -0.15217 -0.58776 -0.16824 0.039663 -0.17539 -0.21244 0.32158 -0.19127 -0.16961 -1.1042 0.47926 -0.050483 0.10499 0.053277 -0.34133 -0.10677 -0.35898 0.1052 0.13854 0.077142 0.1809 -0.46456 -0.73454 -0.1665 0.31493 0.16242 0.31771 -0.17652 -0.74721 -0.67293 -0.52689 -0.043971 0.20583 0.40713 -0.23376 0.087242 -0.2152 -0.059164 0.44605 -0.15943 0.6193 -0.51335 -0.043626 0.15383 -0.22952 -0.13561 -0.0088928 0.26665 0.06778 0.10744
treatment 0.12528 0.53351 0.126 0.23189 -0.22977 0.53558 -0.073906 0.65593 -0.10293 -0.021376 -0.31751 -4.997E-4 -0.1703 0.020927 -0.016103 -0.69647 -0.10871 0.15248 0.45753 -0.29754 0.25074 0.4644 0.14022 0.12391 -0.74495 0.054018 -0.06861 -0.11018 0.15092 -0.48358 0.084446 -0.14497 0.56218 0.056613 -0.34484 0.78132 -0.036836 0.22994 -0.16223 0.73659 -0.88494 0.13931 -0.16414 -0.24827 0.48558 -0.13016 -0.0011843 0.11855 -0.087931 1.0306 0.02951 -0.026988 -0.035079 0.070148 -0.15839 0.37284 0.33883 -0.17185 0.22888 -0.69133 0.47085 -0.19249 -0.67345 0.10563 -0.50071 0.61632 -0.20358 -0.39417 0.14024 -0.024817 0.58365 -0.14808 -0.2285 -0.37785 -0.08678 -0.2243 0.22394 -0.12879 -0.25247 -1.4315 -0.56977 -0.067625 0.2741 0.18545 0.11271 -0.049187 0.33793 -0.077739 -0.18042 0.44564 0.62585 0.1722 0.11869 0.66439 -0.4047 0.043679 -0.34524 0.14949 0.51306 0.013308
flight 0.25934 -0.48283 0.23341 -0.11077 -0.33386 0.60899 -0.21408 -0.17524 -0.40354 -0.12901 -0.49168 0.029665 -0.60438 0.012941 0.18496 -0.38373 0.58953 -0.58772 0.17715 0.27837 -0.072429 0.21675 0.1675 -0.54019 -0.35503 -0.93706 -0.20168 0.7477 0.058628 -1.2508 0.3549 0.18212 0.72928 0.28382 0.060651 -0.055566 0.49169 -0.41764 -0.42207 0.48765 -0.59132 0.12347 0.57083 -0.10957 0.28795 -0.028829 -0.10863 -0.63366 -0.73969 0.035048 -0.28005 -0.39895 0.22156 0.52092 -0.53088 0.45519 0.27734 0.0098086 -0.26684 -0.3513 -0.26895 -0.17097 -0.31244 -0.40374 -0.10616 -0.49517 -0.49156 -1.2359 0.30608 -0.43458 0.47669 -0.34965 -0.25348 0.20591 0.15786 0.094446 0.80849 -0.070986 0.12766 -0.86974 0.042976 -0.39741 0.59406 0.3695 -0.011989 -0.13173 -0.13979 0.021044 0.54746 0.16294 0.18891 0.41415 0.037284 0.21228 -0.19618 0.086172 -0.32439 -0.13505 -0.045322 -0.0063201
forest -0.29572 0.22426 0.24792 0.89138 0.049469 0.069829 -0.27237 0.054916 0.41059 0.078516 -0.39547 0.069767 -0.49741 0.21017 0.07528 -0.4966 -0.05143 -0.27875 0.2056 -0.75767 -0.42618 0.12799 0.85414 -0.78428 -0.39283 -0.45338 -0.2389 0.29543 -0.4305 -0.22724 0.18304 0.21892 0.48007 0.42181 -0.34053 0.45682 -0.11159 -0.020647 0.29433 0.28614 0.35211 -0.41389 0.59441 0.08714 0.34891 -0.48181 -0.20324 0.44455 -0.34532 0.090226 0.40588 0.37129 -0.1885 0.05248 -0.62231 0.2936 0.28333 -0.33387 0.34038 -0.63505 -0.11129 0.070372 -0.19955 -0.47116 -0.11347 -0.089369 -0.038064 -1.1011 0.3624 -0.33413 0.14615 -0.068632 0.07529 -0.37939 0.50134 -0.025443 0.81906 0.78514 0.36735 -0.34028 -1.1309 0.035417 -0.44678 0.22149 0.28287 -0.095754 0.56492 0.6969 0.12661 -0.52263 0.58036 -0.30161 0.31221 0.42319 0.054805 -0.1409 -0.18282 -0.55577 -0.28796 0.54316
abuse 0.15149 0.94252 0.85875 0.36224 -0.59348 0.4528 -0.026896 0.50238 -0.31854 0.38942 -0.1424 -0.32098 -0.37345 0.1704 -0.097373 -1.1419 -0.54456 0.44835 0.42038 -0.4183 -0.32783 0.039567 0.23961 -0.084458 -0.73865 -0.54345 -0.066673 0.31013 0.076504 -0.15658 -0.3501 -0.70836 0.0027486 -0.32311 -0.3057 0.64788 0.45678 -0.16025 0.084134 -0.033325 -0.80317 0.017112 0.10479 0.22226 0.037594 0.56695 0.0014322 0.72708 0.13991 0.7038 -0.10433 -0.21163 0.067772 -0.31966 -0.1663 -0.019505 0.32582 0.19503 0.54325 -0.80739 0.0089999 0.14535 -0.08732 -0.27895 0.099716 0.14917 -0.31732 -0.23804 0.090975 -0.35927 0.73339 0.10371 -0.50224 -0.59952 0.33857 0.048692 0.59202 -0.51821 0.10601 -1.0288 -0.23941 -0.033211 0.89469 0.76674 0.51283 0.22291 -0.085156 -0.071994 0.20379 -0.22322 0.48225 -0.12647 0.025766 0.68887 -0.11357 0.16538 -0.062784 0.24574 0.48744 -0.1039
criterion 0.099432 -0.32469 0.0087298 0.093861 -0.089098 0.45803 0.44478 0.2163 -0.33048 0.51417 -0.12162 0.5519 0.16756 -0.11518 -0.21061 -0.2451 0.19434 0.31802 0.01477 -0.40872 -0.10399 0.44072 -0.22673 0.06192 -0.93378 -0.30275 0.25045 0.45673 -0.27098 -0.30043 0.11641 -0.11324 0.50587 -0.27982 -0.2643 0.22245 -0.26188 -0.16123 -0.13824 0.70917 -0.689 0.13401 0.15477 -0.079575 0.60433 -0.23876 -0.64079 0.24622 0.29976 0.27633 0.021599 -0.24943 -0.050521 0.45814 -0.41207 0.16195 0.65466 0.032604 -0.21915 -0.2591 0.36909 0.26034 -0.073429 0.11777 0.033477 -0.45938 -0.16941 -0.38308 -0.075551 0.12837 0.049129 -0.57135 -0.49919 -0.21375 0.10249 -0.33048 0.10567 0.3435 -0.56471 -0.80993 -0.23599 -0.1982 0.12596 0.74332 0.18361 0.16709 0.10112 0.040159 -0.11274 0.033113 0.77734 -0.17782 0.091717 0.4804 -0.61251 -0.25327 0.057752 0.20196 0.12788 0.023887
sea -0.25092 -0.14532 0.32216 0.24587 -0.13617 0.36175 -0.24952 0.031097 -0.16407 0.24872 -0.58912 0.042015 -0.68047 0.18562 -0.16041 -0.24313 0.21709 -0.33699 0.21698 -0.045052 -0.33036 -0.011226 0.46114 -0.45692 -0.49287 -0.74387 -0.40389 0.017862 -0.12265 -0.47256 0.12102 0.63045 0.15777 0.333 0.10055 0.30832 0.29825 -0.38554 0.0062764 -0.35532 -0.10208 -0.39242 0.75243 -0.21303 0.76803 -0.37614 -0.097374 0.014445 -0.57934 0.41872 0.53174 -0.076388 0.26067 0.43612 -0.35178 0.25727 0.33477 -0.69853 0.40452 -0.19744 0.075591 0.63692 -0.060997 -0.75153 0.041515 0.17631 -0.29695 -0.90656 0.1969 0.0077534 0.52511 -0.063129 -0.5556 -0.26406 0.60846 0.096987 1.0727 0.66653 -0.10561 -0.46286 -0.50058 -0.058144 0.14128 0.23426 0.79719 0.11297 0.60867 -0.094906 0.59583 -0.35958 1.0015 -0.31579 -0.11665 0.21559 0.21559 0.059715 -0.13138 -0.2144 -0.21221 0.26584
dollar -0.45368 -0.1737 0.56126 0.43959 -0.39116 -0.68111 0.060781 0.078965 -0.037736 0.74832 -0.49498 0.34011 0.04839 -0.38599 0.25075 -0.2666 0.82933 0.57951 -0.047575 -0.050673 0.43047 -0.66531 0.69154 -1.1957 0.19947 -0.90724 -0.75647 -0.0034328 -0.071717 -0.93573 -0.43441 0.099557 -0.048011 -0.78536 0.099876 0.0042736 0.27611 -0.13274 -0.16607 0.26164 0.14966 -0.21181 0.29481 -0.64147 0.32997 0.014855 -0.047844 0.0029918 0.61869 0.96196 -0.011363 0.33311 -0.035241 0.6298 -0.46398 -0.071651 -0.51987 -0.38693 0.18805 -0.19278 0.04497 0.58476 0.11025 -0.0076807 -0.38335 0.33033 -0.54322 -0.85147 0.36829 -0.25974 0.32483 -0.48382 -0.4914 -0.37243 0.21809 -0.53947 0.61115 0.1146 -0.23851 -0.55595 -0.7338 -0.25544 0.54762 0.35438 -0.44022 0.32518 0.24532 0.806 0.14432 0.49263 0.2637 -0.50923 0.276 -0.60026 0.080563 -0.30614 -0.50397 0.63341 0.1873 0.016989
example 0.1565 -0.1769 0.075247 0.30221 0.095276 0.081732 0.20581 0.30839 -0.52809 0.34041 0.15891 0.037956 -0.15833 -0.15579 0.11756 -0.29713 0.2326 -0.14869 -0.14618 -0.44216 -0.38271 0.26249 0.3387 -0.2649 -0.49549 -0.4535 -0.23456 0.32398 -0.084413 -0.42732 -0.17686 -0.40855 0.11841 0.016041 -0.17846 0.17841 -0.064029 -0.23267 0.016031 0.29294 -0.528 -0.39407 0.23392 0.02345 0.36432 0.030016 -0.037878 0.034557 0.12062 0.44077 0.11602 -0.01725 0.13661 0.17088 -0.2841 -0.030007 0.013684 -0.41861 -0.19541 -0.48109 0.44902 -0.062428 0.25164 -0.22559 -0.23519 0.25569 0.029617 -0.45787 -0.041139 0.02694 0.020283 -0.51668 -0.083096 -0.22515 0.28029 -0.087568 0.20665 0.013213 -0.51446 -0.61941 -0.42389 -0.010612 0.095375 0.66663 0.037481 -0.30179 -0.12282 -0.032406 0.0176 -0.016815 0.5525 0.22585 0.1933 0.49232 -0.2419 -0.10325 -0.023159 0.55501 0.034303 0.18278
journal 0.35693 -0.32159 -0.0041772 -0.001834 -0.17749 0.46169 -0.11514 -0.16843 -0.073452 0.84943 -0.11666 0.53525 -0.48913 0.5221 -0.12937 -1.2528 -0.65994 -0.87472 0.0044881 0.20696 0.0061289 0.25643 0.65151 0.040115 -0.6894 -0.2719 -0.54676 -0.11335 -0.02284 -0.25428 -0.052442 -0.39551 0.039571 -0.1095 -0.20769 0.20744 -0.7805 -0.14393 0.049573 -0.34254 -0.13203 -0.035173 -0.28257 0.061989 1.2828 0.75307 0.13113 0.1317 0.01734 0.21493 -0.50581 0.050323 -0.03045 0.02835 -0.36138 0.47337 0.45621 0.34824 -0.080021 -0.73449 0.49498 0.38054 -0.18949 1.068 -0.085092 0.42217 -0.3584 -1.1195 0.62244 0.69278 0.54593 0.38736 -0.62413 0.24138 -0.33332 -0.91095 1.0347 0.25377 -0.88685 -0.64835 -0.37266 0.0065016 1.2727 0.21508 0.20857 -0.25245 0.25266 0.37275 -0.35964 -0.28314 0.58811 0.77037 0.18241 0.24602 -0.77603 -0.79086 0.014517 1.0111 -0.16252 0.28496
laundering -0.33845 0.34753 0.7353 0.032251 -0.31832 -0.23602 0.32894 0.23872 0.31333 0.18542 -0.51352 0.43789 -0.079353 0.015972 -0.0081207 -1.1798 -0.15611 0.42708 -0.21827 -0.46641 -0.47581 0.22063 0.607 -0.050737 -0.44294 -1.088 -0.39792 0.55993 0.23889 -0.10167 -0.36341 -0.38724 0.3602 -0.33374 -0.013562 0.7295 -0.1928 -0.11397 -0.078888 0.62954 -0.48968 -0.075909 1.0438 -0.20665 0.28635 0.72504 0.4395 0.43422 0.43255 0.44253 -0.088094 0.0010337 -0.15892 0.018235 -0.89371 -0.39697 0.16662 0.54795 0.44487 0.0038159 -0.0042972 0.10973 0.13981 -0.13665 -0.23344 0.44384 -0.73602 -0.41753 0.65537 -0.17695 0.72582 -0.17483 -0.1565 0.28623 0.79732 -0.10608 0.86079 -0.22294 0.62134 -1.6415 0.32769 0.14299 0.42787 0.56279 -0.21037 0.13806 -0.17204 0.24619 -0.071206 0.31914 -0.090027 -0.56346 0.47392 0.56698 0.17711 -0.15115 0.34731 0.46891 0.23763 0.069873
hotel 0.38523 0.22748 -0.13116 0.68752 -0.43454 0.11017 -0.31097 0.29412 -0.072972 -0.084834 -0.086325 0.26741 -0.5335 -0.42906 0.41148 -0.55049 0.57248 -0.097833 0.12885 0.32107 -0.75474 0.1788 -0.029006 -0.24042 -0.28532 -0.5327 -0.82111 0.50738 -0.27525 -0.61432 -0.016849 0.1479 0.32037 0.42889 -0.44776 1.0379 0.30558 0.11568 -0.25901 0.64865 -0.3321 -0.42862 0.32295 0.7584 0.25412 0.058355 -0.45973 -0.39134 0.12751 0.20576 -0.29833 0.21347 0.27163 0.39096 -0.49159 0.29529 0.42024 -0.47966 0.10315 0.24106 -0.57201 0.10156 0.050369 -0.48315 -0.37289 -0.21786 -0.16002 -0.92022 -0.10696 -0.33618 0.17494 -0.12424 -0.62522 0.067058 0.32366 0.33855 0.27281 0.17762 -0.18601 -1.179 -0.26461 0.11424 0.13725 0.32826 -0.036996 0.058653 0.14696 -0.1159 0.11672 0.44371 0.36108 -0.30063 0.21196 0.012804 -0.27014 -0.015622 0.024283 -0.098658 -0.30345 0.0054918
term -0.39959 -0.015541 0.0083948 -0.0023279 0.35278 0.41416 0.52569 -0.085924 -0.73387 0.30064 -0.36935 -0.50178 -0.74517 -0.40725 -0.32177 -0.22838 -0.12416 0.38366 -0.061583 0.024269 -0.30097 0.38096 -0.1427 -0.77967 -0.86271 -0.42782 -0.055474 0.43333 0.012574 -0.16873 0.066069 -0.17773 0.097799 -0.35752 -0.20873 0.19461 -0.30212 0.45215 -0.48433 0.10579 -0.39574 -0.032789 0.81875 -0.25198 1.0019 -0.18063 -0.65152 0.40911 0.1405 0.79838 0.22002 0.023083 -0.095295 0.21916 -0.13113 -0.31726 0.24256 -0.47477 -0.23862 -0.023124 0.52304 0.33685 0.19521 0.087748 0.018867 0.37131 -0.097987 -0.25613 0.44433 -0.11084 0.44533 -0.44669 -0.50893 -0.13148 0.036463 -0.45254 0.079878 -0.2313 -3.8558E-4 -1.0457 -0.25738 0.1453 0.038656 0.48097 -0.261 -0.11611 -0.18141 0.28841 -0.18158 0.28247 0.15364 -0.23536 0.36667 0.52693 -0.22914 0.1178 -0.21608 0.78074 0.29411 -0.23268
listing 0.19463 -0.081101 0.039944 0.30429 -0.15046 0.086647 0.22178 -0.1606 -0.42968 0.23989 -0.10179 0.49882 -0.45426 -0.45668 0.058671 -0.33817 0.47131 -0.098001 -0.031814 -0.32405 0.363 0.17878 0.2546 -0.66501 -0.4159 -0.38617 -0.49636 0.45518 0.11073 -0.18117 -0.082839 -0.23602 -0.030311 -0.35538 -0.22488 0.20865 -0.084991 -0.048829 0.24113 0.9749 -0.14578 -0.39935 0.47923 0.36341 0.40947 -0.069648 -0.23469 -0.16492 0.14847 -0.081954 0.27383 0.0046767 -0.39909 0.64701 -0.16606 0.47927 0.49765 0.20141 0.25593 0.35448 -0.058115 0.093371 -0.084668 0.22565 0.22043 -0.2633 -0.37732 -0.70107 0.15685 -0.20029 0.41032 -0.38834 -0.26731 0.37994 0.36328 -0.81903 0.2569 0.29248 -0.23973 -0.58138 -0.54966 -0.2325 0.353 1.0843 0.11665 -0.054473 0.009516 0.10046 -0.091327 0.21028 0.49042 -0.041156 -0.32487 0.53705 -0.24652 -0.31956 -0.11533 0.50756 -0.035207 0.13538
chemistry 0.14422 -0.31373 0.29126 -0.11455 0.18725 0.54038 -0.088969 0.009349 -0.3395 0.49037 -0.12047 0.44098 0.022603 0.31084 -0.013601 0.053412 -0.021456 -0.43828 0.27233 -0.54658 -0.30592 0.042855 0.21758 0.16821 -1.2716 -0.49291 -0.25007 -0.33052 -0.79259 -0.16739 0.18515 -0.23706 0.47745 -0.24716 -0.38718 0.029019 -0.67422 -0.22615 0.16056 -0.1597 -0.46066 -0.66463 0.39551 -0.29604 0.33602 0.010602 0.20896 0.094386 -0.098096 0.43813 -0.33946 -0.2185 0.12865 0.45477 -0.90928 0.37294 0.65996 0.1834 -0.051855 -0.70669 0.51594 0.56281 -0.45997 0.4067 -0.14765 0.12927 -0.3164 -0.96588 0.17787 -0.021475 0.30917 -0.045813 0.010079 -0.32711 -0.1649 0.23734 0.31032 -0.29245 -0.64293 -0.55752 -0.11962 0.30662 0.57872 -0.083703 0.3475 0.25967 -0.11288 0.10273 0.017476 0.03116 0.71693 0.092275 0.62941 0.42499 -0.62578 0.31473 -0.016787 -0.26554 -0.45751 -0.030078
seafood 0.016251 -0.15527 0.64224 0.64508 -0.62122 0.10591 -0.21725 -0.34309 -0.35566 0.25674 0.11393 -0.20279 -0.16555 -0.22413 -0.007301 -0.61141 0.4198 -0.31585 -0.13168 -0.31981 -0.52732 -0.0072515 0.53039 -0.10781 -0.72605 -0.66284 -0.50126 -0.90878 -0.052463 -0.34697 0.28177 0.57781 0.092091 -0.5884 0.13031 0.65078 -0.04934 -0.2222 0.43913 0.1266 -0.23389 -0.89941 0.53002 -0.23781 0.44382 0.26189 -0.16243 -0.18586 -0.11968 0.18416 0.2561 0.60202 -0.011858 0.96013 -0.34391 0.11006 0.45758 -0.37938 0.46046 -0.10856 -0.043572 -0.18548 -0.44676 -0.86155 -0.37528 9.4267E-4 -0.053607 -0.84523 0.11028 0.12885 -0.070873 -0.024323 -0.81791 -0.021753 0.21497 -0.081268 0.68321 0.13752 -0.27467 -1.075 0.063745 0.38504 -0.17477 -0.12877 0.46776 0.054261 0.32413 0.36692 0.41631 0.44222 1.2055 -0.60827 0.030626 0.19396 -0.49358 -0.079101 -0.35363 0.2484 -0.14375 0.77339
CD -0.056012 0.15607 0.21893 0.044851 -0.23724 0.3811 0.63534 0.43268 0.04472 0.9074 -0.15081 0.0085341 -0.31549 -0.23733 0.3248 -0.40689 0.4006 -0.22517 -0.3171 -0.75249 -0.38074 -0.67333 0.048697 -0.12185 0.15496 -0.55035 -0.38774 0.6271 0.014563 -0.075556 -0.055893 -0.15991 -0.4007 0.04538 -0.067072 -0.11938 -0.37787 -0.59401 0.38914 0.22442 -0.45833 -0.62697 0.48601 0.10464 0.8271 0.56153 -0.18549 0.13137 0.28784 0.02774 -0.20547 0.031113 -0.34035 0.57191 -0.69229 0.20108 0.39016 -0.2159 -0.36796 -0.1471 -0.040771 0.32859 -0.71995 0.30229 -0.36671 -0.52814 -0.64654 -0.2797 -0.17105 -0.056311 0.59964 0.13885 -0.64619 0.63312 -0.54135 0.63463 -0.13388 0.12718 -0.37468 -0.76927 -1.1213 -0.39722 0.49623 0.76785 0.17571 0.12512 0.047555 0.36804 -0.73071 0.21218 0.45933 -0.40967 0.65956 -0.17198 0.33475 -0.34079 -0.34908 -0.061936 0.29965 -0.054297
mind 0.072097 0.073606 -0.15142 0.46263 -0.076326 0.59433 0.17709 0.42647 -0.21578 0.35748 -0.14626 0.34663 -0.11325 -0.29096 -0.1939 -0.061287 0.058328 -0.079259 0.32881 -0.38402 -0.45779 -0.18265 0.022055 -0.58897 -0.82325 -0.34408 0.12269 0.26147 -0.26046 -0.47756 0.14971 -0.3385 0.044508 -0.1665 -0.35423 0.43413 -0.33959 -0.52987 -0.018612 -0.037569 -0.32889 -0.72979 0.3995 0.14948 0.077931 -0.32029 -0.37192 0.31949 -0.017422 0.52942 -0.073285 -0.35738 -0.032631 0.1554 -0.53767 0.029128 0.010753 -0.23553 -0.40451 -0.41163 0.23828 0.12798 0.019338 -0.0059615 -0.19369 -0.25469 -0.35799 -0.1492 0.64377 -0.54305 0.28221 -0.3588 -0.59204 -0.023688 0.060177 0.0081847 0.54344 -0.20203 -0.53454 -0.54334 -0.35088 0.02276 0.13252 0.805 0.035133 -0.041319 0.083865 0.075702 -0.019056 -0.067718 0.27772 -0.22588 0.14236 -0.054734 -0.14144 -0.16909 -0.076786 0.12511 -0.22251 0.34035
sex -0.31192 0.55179 0.69955 0.89738 -0.31442 0.47101 0.11703 0.31074 -0.4403 0.65238 0.41126 0.031829 -0.25064 0.038616 0.016701 -0.6403 -0.34707 -0.20484 0.27255 -0.15592 -0.69521 -0.36733 0.25265 0.14583 -0.35388 -0.48796 -0.38903 0.41804 5.4598E-5 -0.54828 0.18917 -0.37495 0.70319 -0.5837 -0.31047 0.55928 0.26707 -0.16595 0.071365 0.093347 -0.71846 -0.19161 0.11332 0.19683 0.080753 0.12299 -0.31261 0.63418 0.19132 0.57955 -0.38277 -0.16321 0.042645 0.045207 -0.47114 0.10155 -0.0037681 0.079251 0.22318 -0.60422 -0.18736 0.51777 -0.3728 -0.20388 0.31948 0.32437 -0.12385 -0.17582 0.0038566 -0.54615 0.54574 0.064501 -0.80355 -0.042235 0.3385 -0.18851 0.86422 -0.20901 0.05254 -1.071 -0.52298 -0.28053 0.17157 0.50581 0.0012747 0.34261 -0.022068 -0.33681 0.63257 0.095123 0.5733 0.22427 0.32754 0.91673 -0.37796 0.39004 -0.29037 0.081152 0.25683 -0.30132
food 0.13656 -0.0043288 0.23809 0.42807 -0.33206 0.423 -0.38431 -0.26859 -0.18116 0.64587 -0.30474 -0.16966 -0.18554 -0.7044 0.0078247 -0.72509 0.34368 0.1401 0.050416 -0.47406 -0.835 0.1743 0.18266 -0.1329 -0.62999 -0.42623 -0.45248 0.059176 0.040161 -0.3606 -0.14434 0.23394 0.077959 -0.48469 0.29073 0.39671 -0.065648 0.054023 0.31134 0.21319 -0.68771 -0.67118 0.28061 -0.16239 0.052039 0.238 0.32967 0.31838 0.15373 0.34858 -0.080209 0.020572 -0.23793 0.29095 -0.11763 0.25513 -0.076581 -0.114 0.30736 -0.46107 0.089641 0.074153 -0.68442 -0.90836 -0.22933 -0.15034 -0.13175 -1.0483 0.073943 0.015206 -0.19106 -0.4329 -0.4178 -0.48359 0.062694 0.048411 0.63431 0.2702 -0.23603 -0.87573 0.13445 0.20361 0.19937 0.23007 0.064533 0.023281 0.20739 0.31031 -0.13244 -0.15672 1.3069 -0.47742 0.20853 0.0035805 -0.42794 0.10677 -0.51532 0.086825 0.16946 0.92278
precedent -0.038019 0.029418 0.45663 0.57237 -0.27651 0.28715 0.53859 0.55087 -0.57441 0.18101 -0.35662 -0.10121 -0.1312 0.30286 -0.31943 -0.73404 -0.044751 0.19475 0.1085 -0.44485 0.1362 0.15828 0.18888 -0.45539 -1.089 -0.24011 0.21679 0.27288 -0.097271 -0.20561 -0.33717 -0.012897 0.22423 -0.2329 0.088539 0.27539 0.14863 -0.54421 0.054408 0.48637 0.004728 -0.26851 0.54926 0.050315 0.37593 -0.30295 -0.53553 0.28769 0.50014 0.30198 -0.088 -0.44571 -0.35188 -0.10393 -0.55689 -0.29926 0.24492 -0.31403 -0.11951 -0.57664 0.58589 0.29352 -0.041816 -0.063968 -0.27983 -0.41346 0.27389 -0.39445 0.15342 0.19164 0.32561 -0.63214 -0.062284 -0.25854 0.54951 0.074041 0.2008 0.0966 -0.55128 -0.58016 -0.26833 0.031656 0.37809 1.0354 -0.24028 -0.3019 -0.34768 -0.28567 0.0021308 -0.25324 0.32144 -0.19915 0.3448 0.48612 -0.038623 -0.24906 -0.22546 0.50408 -0.14162 -0.13983
series -0.029645 0.46817 0.014664 0.60709 -0.2658 0.53102 0.0057671 0.46044 -0.72187 0.17696 -0.1066 -0.010634 -0.67586 0.34655 -0.18841 -0.10248 -0.088711 -0.28064 0.38012 -0.3226 -0.25052 0.17984 0.31293 -0.31753 -0.30375 -0.048145 -0.19511 0.13794 0.061101 -0.44393 -0.34464 -0.14672 -0.0017138 -0.18763 -0.54605 0.10593 0.21988 -0.47703 -5.1316E-4 0.16757 -0.48374 0.39644 0.60691 0.40108 -0.076103 0.012504 -0.18795 0.20811 0.25608 0.14677 0.060375 0.13913 0.035943 0.36697 -0.99334 0.24415 -0.088088 0.18717 -0.73364 0.11767 0.38121 0.15237 -0.37143 0.19947 -0.057248 0.17195 -0.13594 -0.8104 -0.39187 -0.09882 0.12874 -0.422 0.011847 0.10356 0.2365 0.20644 0.092724 0.27233 -0.29231 -1.035 -0.26729 -0.32676 0.30331 0.50679 0.46336 -0.59725 -0.18219 0.018961 0.37455 -0.48045 0.03216 -0.22804 0.46581 -0.35932 0.077214 -0.29424 8.5322E-4 0.84737 0.27312 -0.02398
kilometer -0.61483 -0.97774 -0.20702 0.1424 -0.60839 0.198 0.29242 -0.20118 0.24527 -0.25076 -0.91614 0.602 -0.60736 -0.47496 -0.27994 0.099208 -0.61415 -0.033601 -0.23761 -0.21496 -0.31552 -0.84162 0.28791 -0.41631 -0.25153 -0.87467 -0.72017 0.061031 -0.012189 -1.2218 0.17264 0.34613 0.78793 1.033 -0.45322 0.31598 0.23298 -0.36601 -0.42948 0.86208 -0.22924 0.50049 0.39478 -0.12948 0.70491 -0.20058 -0.37578 -0.52785 -0.26309 0.38921 -0.41246 -0.41489 0.71696 0.030317 -0.24214 -0.42991 0.926 -1.2468 0.41822 -0.90724 -0.64154 0.076277 -0.35306 0.11931 0.1244 0.67065 0.50805 -1.091 -0.25214 -0.2683 0.68023 0.84245 -0.1775 -0.25111 0.28509 -0.34116 0.85609 0.47188 0.69343 -0.13163 -0.57648 0.89179 0.21847 0.34004 0.48302 -0.53447 0.53778 1.1722 0.27964 0.37749 -0.089195 -0.064665 0.16381 0.19736 0.25816 0.25848 0.029054 0.44588 -0.10696 0.39588
grocery 0.33653 0.3233 -0.28858 0.44231 -0.63802 0.39899 -0.095937 0.090912 -0.33788 0.33921 0.33885 -0.050773 -0.48074 -1.1249 0.32411 -0.61783 0.32353 0.08216 -0.34467 -0.39609 -1.0237 -0.43117 0.55139 -0.11098 -0.6039 -0.75809 -0.77126 0.31965 -0.12931 -0.056178 0.095318 0.22914 0.12849 -0.3724 -0.20154 0.50319 -0.22817 0.030687 0.19838 0.35432 0.014651 -0.93472 0.37004 0.050537 0.096502 0.53152 0.30523 -0.21228 -0.18122 0.17352 -0.20659 0.24028 -0.25107 0.57374 0.32248 -0.44355 0.28063 -0.015532 -0.32299 -0.66231 -0.7853 -0.021342 -0.27841 -0.71248 -0.44259 -0.56967 0.047006 -0.74255 0.18388 -6.5595E-4 -0.20352 -0.24056 -0.51692 -0.10904 0.072626 -0.16718 0.29643 0.058349 0.13533 -1.1781 -0.14065 0.2685 0.38768 0.44003 0.18535 0.38754 0.15678 0.44512 -0.42104 0.22558 0.67407 -0.14826 0.49395 -0.089734 -0.42853 -0.03693 -0.29455 0.3273 0.10848 0.87859
wizard -0.20632 0.25761 0.16758 0.19535 0.43454 0.68017 0.7096 0.10559 -0.0085989 0.23394 -0.16957 0.1846 -0.37782 -0.10713 0.45992 -0.19291 -0.17964 -0.32585 -0.32387 -0.92763 -0.89095 -0.42323 0.16762 -0.69553 -0.54496 -0.23401 0.025773 0.1016 -0.33376 -0.5245 -0.14902 -0.58019 -0.046302 -0.50067 -0.31052 -0.23801 0.049181 -1.0328 -0.28532 -0.3914 -0.071815 -0.075495 -0.22774 0.14767 0.6265 0.30861 -0.4198 0.23187 -0.057111 0.51844 0.38393 -0.10903 -0.051935 0.52725 -0.79928 0.28969 0.027925 0.41102 -0.61031 0.01732 0.0066875 -0.13038 0.49122 -0.19405 0.012539 -0.40598 -0.059283 -0.52048 0.02374 -0.16947 0.87341 0.12035 -0.161 0.038776 0.66172 0.76254 0.62255 0.40291 -0.76016 -0.82681 -0.45264 0.35939 0.20361 0.3682 0.029307 -0.45435 -0.15847 0.23902 0.013074 -0.20331 0.45583 0.20675 0.45813 -0.23114 0.065814 -0.15671 -0.25843 -0.037587 0.1163 -0.52899
information 0.13356 0.094456 0.35438 -0.38682 -0.30181 0.32883 0.12293 0.0863 -0.11581 0.11487 -0.38497 0.5236 0.15984 -0.14941 0.38505 -0.64549 0.40046 0.19789 -0.17329 -0.92077 0.50483 0.32948 0.17489 -0.081068 -0.60987 -0.68779 -0.59527 0.38931 -0.060663 -0.52894 -0.21167 -0.068624 -0.12848 0.13042 -0.33475 0.33319 -0.6185 -0.40029 0.084925 0.38925 -0.2477 -0.40618 0.053489 0.24779 0.20906 -0.22877 -0.2064 0.76506 0.30478 0.11374 -0.36779 0.15984 0.45217 -0.22165 -0.15861 0.26133 0.39139 0.063224 -0.064132 -0.66867 -0.11992 -0.33059 0.15189 -0.25459 -0.030072 0.25348 -0.026209 -0.2662 -0.39255 -0.30496 0.84529 -0.21896 -0.24778 0.24657 -0.13022 -0.40304 0.82116 -0.038672 -0.25698 -0.69959 -0.33559 0.02728 0.52891 0.90276 0.043822 -0.31539 -0.31961 -0.12252 -0.1414 0.29023 0.34896 0.069243 0.61809 0.2441 -0.63395 -0.29435 -0.60159 0.20243 0.053462 0.98005
Israel 0.31553 -0.27206 -0.073844 0.55384 0.039063 0.0042646 -0.47245 0.25708 0.21796 0.50948 -0.43072 -0.15061 -0.37794 0.4404 0.083839 -0.90494 -0.7638 0.16436 0.29361 -0.057935 0.3559 0.63066 0.74128 -0.63271 -0.011723 -0.014716 -0.044791 1.1884 -0.89066 0.2087 0.24353 0.46276 0.14041 -0.31116 0.012513 0.66953 -0.49092 -0.81206 -0.33151 0.31673 -0.30557 -0.041937 0.68595 -0.51772 -0.24095 0.10717 -0.092486 0.23988 -0.064287 0.96702 -0.041474 -0.18835 0.013643 0.31127 -0.13785 -0.60876 0.77626 -0.64792 0.085911 -0.38363 -0.056541 0.95641 -0.43062 0.15492 -0.062854 -0.17774 -0.59762 -0.60504 0.10042 -0.67118 -0.10275 -0.39455 -0.76687 -0.46799 -0.29172 -0.22149 0.39962 -0.20999 -0.30446 -1.1427 -0.76528 -0.57705 0.22546 0.89375 0.25142 -1.0689 -0.28297 -0.72563 0.32578 0.027058 0.16455 -0.024973 0.14221 -0.095532 0.024235 0.60651 0.21622 0.48516 -0.12484 0.24163
brandy -0.15772 -0.16306 -0.097392 0.87116 -0.05361 0.50716 0.096755 0.20612 0.029499 0.23205 0.22794 -0.1345 -0.24795 -0.29807 -0.26984 -0.22989 0.2513 -0.085891 -0.15655 -0.46717 -0.83741 -0.17854 0.53296 0.011185 -0.46647 -0.56202 -0.30478 -0.32469 0.13722 -0.23054 -0.041025 0.25869 -0.24415 -0.23907 -0.56199 0.47019 -0.084814 -0.52024 0.034828 -0.2403 -0.5678 -0.94034 0.36433 -0.036015 0.33527 0.26747 0.22183 -0.063362 -0.17291 0.34332 0.12567 0.041093 -0.2524 0.45731 0.049227 -0.15822 0.42945 -0.0023022 -0.12068 -0.34417 0.027762 -0.3789 0.3516 -0.43826 -0.42879 -0.12595 -0.21113 -0.44901 0.377 -0.18121 0.29142 -0.033095 -0.67358 0.16417 0.30302 0.17953 0.044807 0.028906 0.087094 -0.78081 -0.27906 0.53772 -0.11631 0.19449 0.10821 0.35258 0.091666 -0.31639 0.15322 0.18092 1.0909 -0.40727 0.4093 0.35372 -0.0010873 0.0042716 -0.35335 0.088255 -0.013302 -0.03069
interview 0.39584 -0.06762 -0.071674 0.39272 -0.211 0.8527 -0.068723 -0.075765 -0.14738 0.057957 -0.30727 -0.13802 -0.54336 0.38381 -0.62979 -0.46148 -0.17984 -0.16023 0.26801 0.68433 -0.41016 -0.32633 0.2309 -0.37721 -0.57789 -0.34755 -0.60343 0.72807 0.32739 -0.16103 -0.28439 -0.34668 -0.3534 -0.060402 -0.85873 0.22757 -0.66527 -0.27575 -0.11793 0.39549 -0.41651 -0.084902 0.22133 0.33879 0.19316 -0.0066523 0.17544 0.18927 0.35533 0.36157 -0.14813 0.20404 0.056167 -0.35684 -0.44589 0.070681 0.34699 -0.44762 -0.15228 -0.21513 0.22831 -0.3068 0.26665 0.41856 -0.23869 -0.13736 -0.32634 -0.66099 -0.073148 -0.25934 0.47654 -0.23333 -0.31284 -0.023272 0.1289 -0.41096 0.30039 -0.20176 -0.49138 -1.0988 -0.25471 -0.4337 0.23768 0.27331 0.011467 -0.55401 -0.73546 0.3884 -0.13255 0.26753 0.28791 0.53527 -0.13735 0.34725 -0.27183 -0.21219 -0.39785 0.33594 -0.31846 -0.042973
prominence -0.030768 -0.14422 0.61911 0.69664 0.26558 0.15742 0.034499 0.37972 -0.41768 0.11813 0.003924 -0.06498 -0.14289 -0.011565 0.43846 0.078074 0.28694 0.25345 0.2406 -0.45047 -0.34465 -0.16061 0.6798 -0.63367 -0.65653 -0.35704 -0.96589 0.3325 0.21767 -0.2816 -0.54366 -0.16053 -0.10184 -0.28192 -0.36562 0.29291 0.29639 -0.35586 -0.16505 -0.11592 -0.62173 -0.1318 0.32702 0.38871 0.39598 -0.15629 -0.32972 0.55919 0.019832 0.4491 -0.016691 -0.07273 -0.33244 0.06144 -0.10311 0.11347 0.55109 -0.073936 -0.59061 -0.50222 0.45474 0.39643 0.26499 0.27558 -0.026618 -0.33726 -0.61902 -0.43716 0.23813 -0.10444 0.11373 0.1477 0.11962 -0.34135 0.099141 -0.15196 0.44261 -0.014613 -0.55342 -0.60336 -0.26641 0.04518 0.441 0.27982 -0.11556 -0.12791 -0.30643 -0.12146 -0.41875 -0.45313 0.29738 -0.10616 -0.019818 0.064509 -0.14735 0.38552 -0.35421 0.26312 0.10918 0.25954
bed -0.21476 -0.017941 -0.27202 0.37288 -0.51464 0.95313 -0.21838 0.60545 0.18699 -0.063564 -0.23901 0.2342 -0.42557 -0.34727 0.2775 -0.40604 0.36651 -0.42207 0.51225 -0.1422 -0.70461 -0.57972 0.1451 -0.23381 -0.42328 -0.40793 -0.23851 0.74906 -0.26958 -0.087742 0.049567 0.23982 -0.055866 -0.079993 -0.38478 0.68732 -0.030672 0.029326 -0.58276 0.26613 -0.68154 -0.50717 0.07518 -0.011759 0.59566 -0.024962 0.39066 0.18696 0.01938 0.44147 0.084793 -0.16113 0.24158 0.22884 -0.36736 0.43115 -0.0052364 -0.41603 0.018555 0.09678 0.086851 0.052264 0.04959 -0.23177 -0.13092 0.21555 0.040283 -0.54109 0.43277 -0.43629 0.31469 -0.4053 -0.71018 -0.023882 0.38078 0.39563 0.70119 0.24823 -0.29031 -0.82008 -0.44051 -0.13291 0.040795 0.080018 0.52546 0.39815 0.49173 0.17518 0.021653 0.029861 0.87057 0.015142 0.32916 0.12233 0.016735 -0.14006 0.049039 -0.048481 0.22632 -0.010539
furnace 0.21857 -0.35836 -0.2324 -0.23813 -0.56023 0.30285 0.047663 0.51323 0.088292 0.10686 -0.83597 -0.040009 -0.46859 -0.60023 -0.29466 -0.29679 0.29682 -0.13855 0.29441 -0.66814 -0.45813 -0.25467 0.39787 -0.65581 -0.55742 -0.24777 0.070654 0.092913 -0.68901 -0.12526 -0.13921 0.20387 0.39366 0.14008 -0.29833 0.24646 0.0057619 0.12314 0.071527 0.011707 -0.58061 -0.70613 0.23201 0.11303 0.054868 0.28662 0.27093 0.19807 -0.31321 0.30541 0.019951 0.59358 0.63903 0.65399 -0.37569 0.14776 0.7635 -0.18217 0.2585 0.065736 0.029951 0.30471 -0.28052 -0.055746 -0.55319 0.073047 -0.05496 -1.1094 0.23931 -0.16852 -0.055274 -0.51482 0.10153 -0.10783 0.3297 0.26656 0.23026 -0.04447 0.026361 -0.51872 -0.6269 0.21413 0.057024 0.24199 0.33781 0.008793 0.36901 0.46908 0.22374 -0.18165 0.66227 -0.19448 0.9152 0.12151 -0.054572 0.10847 -0.29334 -0.41203 0.48233 0.52985
evidence -0.28482 0.1025 0.24024 0.16098 -0.53612 -0.028594 0.18447 0.42552 0.093556 0.4642 0.09731 0.074961 -0.050224 0.26007 -0.015272 -0.90784 -0.090165 0.57515 0.5548 -0.14806 0.22613 0.067347 0.21625 -0.062281 -1.2672 -0.71801 -0.1522 0.51648 0.11382 -0.64298 -0.33761 0.058805 -0.17544 -0.51557 -0.24768 0.37893 -0.31633 -0.24823 0.076597 0.045879 -0.34167 -0.19219 0.39876 0.1691 0.44711 -0.52775 0.45734 0.50379 -0.08031 0.27216 -0.28968 -0.35625 0.22951 -0.20078 -0.57488 0.11996 0.249 -0.33405 -0.013015 -0.50727 0.44086 0.14721 0.12136 -0.14191 -0.31377 0.022042 -0.030135 -0.52116 0.08535 -0.15102 0.47939 -0.34164 -0.31504 0.10431 0.60606 0.065845 0.42327 0.025472 -0.55494 -0.72847 -0.04446 -0.12615 0.65155 0.503 0.39553 -0.10386 -0.28895 -0.043399 -0.27765 -0.54363 0.30516 0.1008 0.86582 0.5131 -0.79617 -0.074245 -0.15135 -0.17061 -0.030623 0.30957
sprint -0.56175 -0.43507 0.4258 0.38752 -0.023311 0.49694 1.051 0.84532 0.026541 0.21216 -0.49121 0.089767 -0.50233 0.24716 -0.45572 0.66315 0.16038 0.33473 0.49383 0.242 -0.70255 -0.52146 0.33254 -0.28641 -0.26083 -0.38865 -0.48168 -0.66821 0.066574 -0.31304 -0.045279 -0.11577 0.63379 0.42905 -0.3582 0.62958 -0.10285 -0.58192 -0.64981 -0.0054573 0.17039 0.48232 0.77752 -0.48178 -0.065238 -0.19208 -0.19255 -0.3867 -0.54772 0.52807 -0.70037 -0.6022 -0.45665 0.53505 -0.60497 -0.089638 0.76818 -0.20534 -0.16515 -0.4008 0.29219 -0.25404 0.0079654 -0.18024 0.56785 -0.11208 0.10768 -0.59207 0.20643 -0.42464 0.36247 0.57819 -0.16477 -0.50914 0.43324 -0.21107 0.43289 0.59003 0.066118 -1.0389 -0.059185 0.092719 0.80094 0.32582 0.092695 0.19536 0.091138 0.16879 -0.13154 -0.052587 0.68815 0.073037 0.47775 -0.089588 -0.18531 -0.21371 -0.49281 0.58842 -0.1855 0.11904
emergency 0.52984 0.57243 0.16624 -0.22568 -0.29657 0.69026 0.18251 0.30754 0.037477 0.041557 -0.59035 0.12592 0.28451 -0.28919 0.079155 -0.50672 0.49647 -0.19752 0.33076 -0.014557 -0.016057 0.57636 0.42544 -0.65356 -0.64091 -0.64131 0.11372 0.5746 0.16425 -0.19508 -0.075856 0.31358 0.27533 -0.038246 -0.21377 0.35589 0.20947 0.1547 -0.28731 1.1132 -0.53118 0.030904 0.10259 0.096957 0.17848 -0.074501 -0.24295 0.16734 0.43787 0.0049787 0.29908 -0.27719 0.2108 -0.28102 -0.13787 -0.58916 0.14909 -0.35558 -0.039397 0.033349 0.10535 0.0051471 -0.37545 -0.69384 -0.53626 0.38092 0.15115 -1.3344 0.037539 -0.10102 0.021734 -0.24219 0.023713 -0.64262 -0.021651 0.13787 0.31294 0.36798 -0.06228 -1.3265 -0.35444 -0.24922 0.31965 0.69431 0.14129 0.26236 -0.12559 0.5504 -0.12816 -0.1945 0.67334 0.45672 -0.48962 0.032744 0.14383 -0.13885 -0.46769 0.10239 0.56973 0.023203
Jackson 0.42505 0.10848 -0.048035 0.58426 0.1823 0.41573 0.42364 0.52476 0.36578 -0.028878 -0.23267 -0.067874 -0.3 0.19309 -0.35672 -0.24101 0.087734 0.23901 0.57363 -0.76285 -0.50223 -0.18609 0.71009 -0.4493 -0.52985 -0.37533 -0.15019 0.52014 -0.35006 0.32002 -0.33597 0.25441 -0.37975 0.10478 -0.24979 -0.0099295 0.2175 -0.68018 0.021384 0.3875 -0.60341 0.34737 0.3488 0.24929 0.049419 0.10944 -0.14718 -0.10763 0.47186 0.15058 -0.26288 0.10948 -0.4991 0.33793 -0.6084 0.71793 -0.18374 0.24875 0.010886 -0.46792 0.17002 -0.1806 -0.31791 0.20883 0.24993 -0.25648 -0.16682 -0.37803 0.074594 -0.41631 0.38313 0.44776 -0.4966 -0.012842 0.020501 0.1581 0.19996 0.36702 -0.46812 -1.0967 -0.21205 -0.278 -0.049768 1.4334 0.89194 0.56222 -0.11912 -0.23414 -0.61012 0.15624 -0.028644 0.48142 0.54983 -0.0076186 -0.18177 0.29304 -0.45479 -0.23617 0.21521 -0.2685
institution 0.21727 0.02142 0.21592 0.1413 -0.052283 0.092466 -0.034728 0.22474 -0.4504 0.17398 0.016304 0.58524 -0.13793 0.18712 0.099588 -0.92868 0.16418 -0.0014788 -0.19118 0.0093155 -0.6119 0.50217 0.47917 -1.0694 -0.50833 -0.39192 -0.1422 0.17137 -0.27378 -0.024076 0.3488 -0.53856 0.27216 -0.25647 -0.24344 0.31549 0.063728 0.21858 0.10615 0.13777 -0.41115 -0.17379 0.060646 -0.11228 0.51667 -0.0059907 -0.61641 0.37072 0.75525 0.32319 -0.050009 -0.23868 -0.019465 0.31183 -0.52356 -0.66776 0.43312 0.048821 -0.27241 -0.33135 0.059273 0.38864 -0.2037 -0.15049 -0.11524 -0.22799 -0.15949 -0.11007 -0.23228 -0.041604 0.39278 -0.22226 -0.32919 -0.44641 0.31241 -0.074054 0.26837 0.22196 -0.62721 -0.60439 -0.21794 -0.017505 0.96748 0.52673 -0.051304 -0.051823 0.16283 0.29251 -0.087045 0.26874 0.54895 -0.13729 0.12578 0.64665 -0.040415 0.24556 -0.076534 0.17359 0.18702 -0.14464
bird -0.22331 -0.0042497 0.065362 0.57839 -0.38299 0.45169 0.23761 -0.081453 0.15671 0.079448 -0.18671 -0.167 0.13164 0.012242 0.26832 -0.59088 -0.0017795 -0.58338 -0.041867 -0.37881 -0.11254 0.18522 1.02 -0.1172 -0.54735 -0.51063 -0.098198 0.0065738 0.058159 -0.95859 0.24408 0.051728 0.24574 -0.54805 -0.045488 0.48303 0.23772 -0.40729 0.26946 -0.18396 0.17853 -0.17594 0.19434 -0.0023222 0.14777 -0.66044 -0.36308 -0.085096 -0.4377 0.1811 0.62195 0.26995 0.010067 1.0037 -0.25158 0.28929 -0.093165 -0.083871 -0.020595 -0.26795 -0.10486 0.047438 0.23996 -0.41101 -0.1892 -0.001244 -0.2573 -1.0718 0.62201 -0.35979 0.14172 -0.29651 -0.84662 -0.21581 0.038594 -0.13805 1.0336 0.43805 -0.21626 -0.44059 -0.68737 -0.19583 0.2525 0.45008 0.87588 0.030509 0.26608 0.24689 0.44417 -0.44202 0.73212 0.31354 0.21689 0.29509 0.28924 -0.25071 -0.53977 -0.053788 0.056127 0.42715
Brazil -0.32612 0.16559 0.82318 0.38166 0.15356 -0.070443 -0.14613 0.55035 -0.15885 0.64274 -0.51823 0.49826 -0.5692 0.39684 0.4832 0.16795 -0.25224 -0.07619 0.14466 0.14802 -0.48133 0.15431 0.75153 -0.61087 -0.21258 -0.73576 0.062407 -0.056658 -0.57709 -0.42495 -0.16213 0.13147 0.41913 -0.092053 -0.25726 -0.067202 0.51276 -0.43149 -0.58673 0.6771 -0.11989 0.29036 0.69445 -0.21035 0.25282 0.11772 0.4352 0.098822 0.48495 0.18265 -0.51508 -0.22385 -0.50541 0.20867 -0.36231 -0.28768 0.33036 -0.24316 0.70482 -0.22351 0.24585 -0.54708 -0.069755 -0.69084 -0.46148 -0.20686 -0.25704 -0.9127 0.3995 -0.069838 -0.27252 -0.084692 -0.36894 -0.35146 -0.27945 -0.10526 0.42412 -0.28921 -0.32149 -0.52414 -0.83263 -0.34002 -0.53973 0.40134 0.36564 -0.92157 -0.18982 0.12325 0.034998 -0.14184 0.27898 -0.16346 0.16062 0.49091 -0.37973 0.016276 -0.46807 0.52241 0.21101 0.41076
warning 0.35148 0.28154 0.14441 0.049838 -0.068272 0.51771 0.19281 -0.21107 -0.3123 0.021344 -0.34096 -0.62887 -0.53684 -0.2846 -0.36044 -0.75046 0.28697 0.0028755 -0.22338 -0.09446 0.54964 0.072038 0.3847 -0.32634 -1.0396 -0.55069 -0.34831 0.35448 0.018739 -0.36332 -0.31109 -0.20862 -0.13729 -0.18655 -0.17402 -0.22943 -0.062677 -0.64075 -0.34472 0.21883 -0.56284 -0.54651 0.48423 0.27857 0.35889 -0.45439 0.06996 0.22216 -0.37738 0.2864 0.29328 -0.49218 -0.29725 -0.080465 -0.45322 -0.6031 0.26876 -0.15875 0.12331 -0.40195 0.3843 0.36723 0.36379 -0.42915 -0.50266 0.23218 0.15749 -0.28642 -0.18986 -0.31437 0.39445 -0.30765 -0.34579 -0.11671 0.32994 0.2307 0.3236 0.39886 -0.29073 -0.92647 -0.52012 -0.055805 0.2875 0.65463 0.23602 -0.12581 0.23538 0.058061 0.079916 -0.50022 0.38909 -0.095142 -0.44687 -0.0027461 -0.023206 -0.075752 -0.64041 0.51038 0.61844 0.31608
implement -0.4394 0.51818 0.21548 0.16909 -0.03994 0.50953 0.13562 0.14722 -0.31805 0.050363 -0.3729 0.10624 0.0061621 0.016497 -0.26622 -0.55564 0.73493 0.37214 -0.47714 -0.36596 0.3141 0.53454 0.43242 -0.33793 -0.27664 -0.28949 0.19226 0.20283 -0.23162 0.0017691 0.12529 -0.069675 0.73489 0.017601 -0.30515 -0.13072 -0.26049 0.10493 -0.066066 0.70079 -0.27732 -0.30402 0.38787 0.38553 1.0057 0.13787 0.15019 0.12282 0.33095 0.44501 -0.15773 -0.5235 0.33815 -0.060911 -0.3169 -0.30412 0.62224 -0.0080723 -0.15503 -0.18661 0.40479 -0.055759 -0.5594 0.23123 0.023753 -0.03716 -0.11056 -0.44599 0.0068586 -0.057036 0.085652 -0.55378 0.24481 -0.49295 0.25104 -0.24046 0.37835 -0.096978 -0.17524 -1.3092 -0.32785 0.039594 0.16083 1.156 -0.17687 -0.079021 -0.37517 0.36149 0.28738 -0.038552 0.65971 -0.1324 -0.091933 0.3688 -0.21586 -0.34118 0.20549 0.48902 0.22138 0.67914
train 0.022776 -0.099151 0.23665 -0.2601 -0.47573 0.60161 0.43941 0.17129 -0.09941 -0.41846 -0.23948 0.29642 -0.39392 -0.37482 0.25717 0.0099787 0.77589 -0.30741 -0.28783 0.22599 -0.55907 0.16956 0.3576 -0.36514 -0.54765 -0.22059 -0.056885 0.45528 0.13622 -0.93058 -0.27059 0.32488 0.86358 0.58741 -0.62608 0.3152 0.14817 -0.53861 -0.44515 0.18842 -0.19143 -0.25515 0.44485 -0.11282 0.07579 0.1902 -0.31507 -0.2067 -0.72992 0.63764 -0.24018 -0.089608 0.41273 0.36054 -0.59014 -0.54434 0.22554 -0.040934 -0.078406 -0.32334 -0.15854 0.35754 -0.096866 -0.55653 -0.067613 -0.21098 -0.28314 -0.62266 -0.033479 -0.50852 -0.11047 -0.55057 0.027846 0.0097808 0.1601 -0.031984 0.43254 0.43133 -0.20888 -0.89673 -0.20696 -0.1324 0.47145 0.56742 0.1491 -0.054014 0.011115 0.14217 0.31228 0.15949 0.44398 0.40091 0.48745 -0.049487 0.26969 0.04705 -0.18695 0.042384 0.31281 0.011396
area 0.23282 0.029019 0.098469 0.4953 -0.6081 0.26821 -0.19121 0.11103 -0.12361 -0.39399 -0.09205 0.34065 -0.66022 -0.32828 -0.13251 -0.61518 0.31629 0.028933 -0.05225 -0.20133 -0.47242 0.41418 0.36535 -0.19735 -0.62875 -0.79232 -0.80151 0.21639 0.089935 -0.18489 -0.094535 0.23426 0.35302 0.35064 -0.32204 0.50684 -0.16671 0.10522 0.1077 0.68186 -0.058375 -0.10879 0.48071 -0.10181 0.52148 -0.34677 -0.38301 0.2729 -0.35661 0.31809 0.44615 -0.067296 0.43825 -0.12299 -0.3024 0.041455 0.41015 -0.33801 -0.098041 -0.59771 -0.16715 0.30786 0.014087 -0.19981 -0.32998 -0.10446 -0.013678 -0.55046 0.14383 -0.31792 -0.19886 0.057546 -0.28217 -0.2829 0.29091 0.10559 0.2378 0.49942 -0.11895 -0.30879 -0.39405 0.10912 0.0068041 0.43183 0.74406 -0.11882 -0.060418 0.15931 0.28236 0.26905 -0.14538 0.005538 0.35162 0.22848 -0.21849 0.0051021 -0.23914 -0.071031 0.53408 0.29653
image -0.014544 0.12681 -0.19512 0.94316 0.068977 0.098146 -0.23241 0.45476 -0.15949 0.12868 -0.099431 0.22558 -0.23627 0.40333 0.21649 -0.30394 -0.088209 -0.21165 -0.063448 -0.61441 -0.36192 -0.53582 0.10477 -0.74272 -0.48272 -0.38325 -0.18424 0.11346 -0.0092363 -0.88667 0.071267 -0.64013 -0.28786 -0.049455 -0.22102 -0.21613 -0.217 -0.23624 -0.083058 -0.19038 -0.23317 -0.55225 0.40984 0.24019 0.1172 -0.24693 -0.4738 0.44035 -0.029179 0.44889 -0.0010963 -0.40302 0.57663 -0.18163 -0.077773 -0.21715 0.67811 -0.18613 -0.25229 -0.26659 0.48808 -0.078782 0.25225 -0.050145 -0.22238 -0.40069 -0.53156 -0.59438 0.058978 -0.09537 0.39377 -0.19436 -0.6974 0.10243 0.018833 0.12977 0.42158 0.23305 -0.29692 -0.79066 -0.3967 -0.15575 0.21135 0.45471 -0.049369 -0.22589 -0.27181 -0.078905 0.23374 -0.16326 0.5031 -0.089094 0.55723 0.64209 0.0042432 0.13948 -0.16729 0.2007 0.4904 0.1647
murder -0.40156 0.41776 0.50579 0.019259 -1.1289 0.42823 0.38131 0.44826 -0.11281 0.19517 -0.018128 -0.15696 -0.34481 0.57364 -0.16381 -0.64883 -0.70979 0.29314 0.36859 -0.34114 -0.86259 0.035044 0.84759 -0.025855 -1.2026 -0.066798 -0.40498 1.1651 0.24851 -0.35297 -0.40836 0.20135 0.48517 -0.33432 -0.1686 0.62608 -0.18507 -0.39828 -0.25232 -0.39394 -0.22774 0.1575 0.67401 -0.036491 0.43964 0.65811 -0.50982 -0.039009 0.072479 0.66536 -0.021857 -0.040137 0.22084 0.14205 -0.10305 0.15378 0.64615 0.49881 0.39285 -0.29862 -0.31087 0.54661 0.30782 -0.2528 -0.51411 0.33018 -0.59704 -0.6917 0.37725 -1.0272 0.21737 0.21117 -0.11285 -0.16122 0.68156 0.21564 0.20841 -0.26364 0.17738 -0.8175 0.34143 0.069446 0.66545 0.84831 -0.10476 0.26168 -0.48566 0.09113 -0.57246 0.31302 0.26664 -0.12594 0.60071 0.71327 -0.2795 -0.52499 0.26506 0.11492 -0.26821 -0.26268
journey -0.079088 -0.16442 0.10211 0.10652 -0.28329 1.21 0.20372 0.067599 0.13125 -0.11635 -0.29172 0.27071 -1.015 0.30951 -0.022637 0.071532 0.26349 -0.51528 0.0047188 -0.22713 -0.77436 0.036113 0.21043 -0.90195 -0.52995 -0.061074 -0.14635 0.42982 0.23109 -0.54621 -0.1418 -0.17311 0.9086 0.57397 0.048015 0.38365 0.10785 -0.63568 0.11512 0.33748 -0.21118 0.41377 0.30131 -0.20256 0.31468 0.040312 -0.3245 -0.35326 -0.53117 0.45995 -0.3194 -0.42955 0.028194 0.28324 -0.014352 0.21911 0.20829 -0.46529 -0.22566 -0.55425 0.68248 -0.11768 -0.10126 -0.39562 0.42935 -0.014908 -0.19174 -0.49598 0.20106 -0.49773 0.58206 -0.38234 -0.36213 0.29968 0.2583 0.06126 0.5726 0.14714 0.11694 -0.63719 -0.27111 0.11287 0.43572 0.41461 0.27719 -0.29223 -0.061813 0.38044 0.24662 0.28203 0.29732 0.045914 0.080146 0.18626 -0.37904 -0.16886 -0.1252 0.31107 -0.30905 0.13021
minister 0.30956 0.040361 0.83088 0.21484 -0.20727 0.44508 -0.43795 -0.053371 0.30704 0.27078 -0.7175 -0.30663 -0.59309 0.46427 0.32542 -0.63267 -0.21786 0.76652 -0.13485 0.33432 -0.41211 0.35008 0.38615 -0.22543 -0.82398 -0.86587 -0.21031 0.46305 -0.79051 0.39711 0.020169 -0.19585 -0.11776 -0.27385 -0.93787 0.27097 0.0053019 -0.57286 -0.91718 0.027877 -0.79911 -0.15225 0.041631 0.080571 0.5158 -0.40828 -0.35162 -0.18952 0.67514 0.26583 -0.040753 0.22622 -0.2205 -0.39902 0.40498 -0.70824 0.23318 0.0090083 -0.24916 -0.06686 0.42639 0.33677 0.11823 0.17932 -0.11628 0.25007 -0.2482 -1.3462 0.28104 -0.67873 -0.0074465 -0.22932 -0.28627 -0.5343 0.5086 -0.6071 0.21341 0.13947 -0.24373 -0.77098 -0.19725 0.24519 -0.0091994 0.56271 -0.47244 0.047202 -0.82829 0.5347 0.75575 0.0033422 0.32069 -0.13133 0.45903 0.095178 0.065799 0.34932 0.0089932 0.40952 -0.1548 0.16859
planet 0.045948 -0.81789 0.25389 0.20295 -0.10131 0.10182 -0.40987 0.32411 -0.31052 0.46628 -0.6909 0.34595 -0.13471 0.14398 -0.41911 -0.41774 -0.080641 -0.036555 0.12843 -0.51982 -0.6272 -0.098998 0.43506 -0.51035 -0.36132 -0.30338 0.004499 0.28154 -0.43706 -0.52468 0.36277 -0.37335 0.39416 0.37393 -0.11247 -0.010962 0.07459 -0.69732 -0.15673 -0.45639 0.1396 -0.25791 0.34307 -0.34147 0.50033 -0.49297 -0.088036 0.38508 0.16365 0.21777 0.43867 -0.60148 0.37453 0.27735 -0.65131 0.64411 0.21842 -0.53351 0.1741 0.082167 0.095176 0.38421 -0.44053 -0.58707 0.13541 -0.17481 -0.31059 -0.79526 0.54988 -0.27168 0.34999 -0.017862 -0.72239 -0.17124 -0.10473 -0.22558 0.97123 -0.10203 -0.29121 -0.34298 -0.82924 0.48641 -0.018492 0.46304 0.39597 -0.54744 0.23439 0.46379 0.36245 -0.44539 0.24942 -0.11348 0.6021 0.93201 -0.038412 0.17753 -0.56516 -0.074824 -0.036496 0.47208
article 0.2173 -0.87359 0.1458 0.71878 -0.74905 0.56514 0.1621 -0.62478 -0.32779 0.37641 -0.11395 0.27968 -0.44416 -0.23356 -0.74429 -0.81679 -0.48424 -0.21918 0.31257 -0.03865 0.16615 0.088287 0.21443 -0.213 0.081072 0.16974 -0.38284 0.32558 0.17254 -0.32475 -0.29115 -0.62625 -0.50901 0.11905 -0.16334 0.15741 -0.63548 -0.57928 -0.018211 -0.41167 -0.19947 0.0054676 0.43235 0.21598 0.90802 0.44141 -0.48018 -0.32644 0.5964 0.86922 -0.019264 0.065161 0.87064 0.15907 -0.30132 -0.51331 0.14196 0.51253 -0.044032 -0.87089 -0.24929 -0.063571 0.26132 0.81907 0.4903 0.34851 -0.27949 -1.1353 0.60543 0.22284 0.41968 -0.36996 -0.55321 0.1413 -0.30115 -0.48118 0.66675 0.073033 -0.84082 -0.61933 -0.20573 -0.31462 0.40993 0.39976 0.12148 -0.29366 -0.21671 0.71073 -0.72338 0.15259 0.5716 0.49534 -0.10438 0.35241 -0.72371 -1.2312 0.20173 0.68381 -0.0067828 0.29199
anxiety 0.57121 0.36685 0.18442 -0.10066 -0.26253 -0.20199 -0.14863 -0.01777 -0.45009 0.53356 -0.19189 0.39221 -0.35685 -0.60423 -0.36306 -0.27932 0.29196 0.16567 0.091738 -0.64573 0.096725 -0.37375 0.49176 -0.26127 -1.3087 0.097605 -0.10619 0.31569 -0.17151 -0.39514 -0.05158 -0.24919 0.36822 -0.4649 -0.17564 0.30561 0.24558 -0.19178 -0.27871 -0.17069 -1.1723 -0.0059418 -0.035735 -0.0296 0.11959 0.41452 -0.11462 0.65159 0.050696 0.88673 -0.48604 -0.33677 -0.10088 -0.18007 -0.25204 0.080084 0.0039121 -0.085119 -0.20159 -0.90176 0.36883 0.056744 -0.16527 0.049139 -0.23014 0.24437 -0.37126 -0.38318 0.68456 -0.58325 0.59498 -0.53091 -1.0741 -0.18223 -0.10693 0.3444 0.56288 0.30629 -0.44474 -0.93365 -0.36448 -0.14571 0.72741 0.32526 0.39228 0.14398 0.16837 -0.22852 0.22022 -0.25835 0.29068 -0.24179 -0.32725 0.024842 -0.47726 0.3575 -0.29464 0.13035 -0.010966 0.007749
month 0.034957 -0.11317 -0.28169 0.4065 0.085907 0.23118 -0.016322 -0.13409 -0.5127 0.7949 -0.5327 -0.079832 -0.7412 -0.032302 -0.097436 -0.25 0.14016 0.33907 -0.099221 0.15388 -0.58126 -0.20091 0.40754 -0.32185 -0.0057702 -0.66442 -0.35726 0.78468 0.29719 -0.36048 -0.36188 -9.3909E-4 -0.026915 -0.069111 0.015507 -0.01409 0.21197 -0.14768 -0.35996 0.87261 -0.37685 -0.27426 0.13522 0.69653 0.13678 -0.4189 -0.12006 0.033939 -0.069987 0.28977 0.079775 -0.1135 0.022554 0.34938 -0.67493 -0.21715 0.42081 -0.2892 -0.19735 -0.36309 0.1784 0.43467 -0.4183 -0.212 -0.25437 0.76775 -0.21345 -0.42689 0.27722 -0.070526 0.031916 -0.095321 -0.083021 -0.58084 0.1767 -0.10083 0.09932 0.0024943 -0.25174 -0.58663 -0.17352 0.065442 0.52375 0.33937 0.44686 -0.17295 -0.25774 0.25403 -0.2688 0.39306 0.16911 0.12921 0.13804 0.1638 -0.37005 -0.43761 -0.091868 0.76317 0.15451 0.098076
carnivore -0.075989 -0.16736 0.28724 0.73909 -0.15235 0.26168 0.18704 0.067758 0.016333 0.75325 -0.2026 0.12928 -0.11167 0.2093 -9.3152E-4 -0.46582 -0.21791 -0.3514 -0.020086 -0.38859 -0.82482 -0.18389 1.1129 -0.17588 -0.53901 0.067942 -0.10002 -0.31456 -0.25252 -0.69175 0.42257 -0.15259 0.44863 -0.53662 -0.097011 0.81673 0.013209 -0.31473 0.41254 -0.51179 0.084185 -0.30447 0.097279 -0.28989 0.45653 0.17934 -0.13599 0.043928 -0.018676 0.29949 0.40582 -0.058338 0.015273 0.7399 -0.43064 0.49594 0.13956 -0.41526 0.34988 -0.46222 -0.11357 -0.26984 0.14991 -0.54114 -0.16146 -0.12785 -0.10403 -0.93293 0.46516 0.071826 0.22465 0.10018 -0.50426 -0.1174 0.2791 0.05377 0.70354 0.31349 -0.49854 -0.39572 -0.62201 0.38136 -0.063835 0.15205 0.47436 0.04617 0.19312 0.22747 0.19648 -0.59965 0.6529 -0.051581 0.36305 0.8401 -0.16303 -0.079344 -0.58566 -0.1842 0.036526 0.42746
party -0.28395 0.028803 0.26166 0.4911 0.095193 0.33533 -0.076184 0.51869 -4.3155E-4 0.22856 -0.20746 -0.094592 -1.0553 -0.23895 0.16009 -0.27932 0.24521 0.4032 -0.10143 -0.046543 -0.46558 0.12046 0.4594 0.023567 -0.41506 -0.26959 -0.44648 0.76099 -0.63778 -0.4246 0.16663 -0.039288 -0.20084 -0.11633 -0.57372 0.36697 0.19523 -0.19423 -0.60658 0.096939 -0.22685 -0.63777 0.25133 0.064386 0.20384 -0.41692 -0.69888 0.36513 0.35834 -0.081799 -0.42942 -0.086118 0.022032 0.32485 -0.045541 -0.26807 0.23318 -0.30637 -0.60572 -0.12938 0.0063752 -0.18731 -0.29522 -0.069487 -0.18403 -0.089586 -0.21668 -0.594 0.049217 -0.31115 -0.406 -0.12068 -0.3977 -0.0050143 0.53444 -0.23213 0.50608 0.36223 -0.4641 -1.0831 0.03257 0.16711 0.7722 0.58553 -0.25105 0.88742 -0.73393 0.36758 0.1479 -0.1451 -0.0070502 -0.46779 -0.11373 0.67224 0.12195 0.38643 -0.025631 0.28108 0.0057985 0.24639
production -0.17935 0.033234 0.45397 0.257 0.010836 0.49692 -0.1565 0.19838 -0.12881 0.68741 -0.32774 0.28954 -0.51714 -0.28401 -0.30218 0.14233 0.31753 0.057181 -0.39957 -0.24604 -0.13228 0.18688 0.60663 -0.52846 -0.95221 -0.11612 0.11171 0.06596 -0.20427 -0.43204 -0.67985 0.17733 0.34 -0.25339 -0.030951 -0.46664 0.28616 -0.35462 0.40661 0.36099 -0.52806 -0.041006 0.32307 0.032935 0.063087 0.097879 0.49072 0.17547 -0.16679 0.4816 -0.12851 0.74112 -0.078009 0.85935 -0.24413 0.38416 0.68305 -0.46396 0.22985 0.036273 0.10531 0.013544 -0.55226 0.3894 -0.27111 -0.40785 -0.37246 -0.66373 -0.031373 0.36124 0.10216 -0.63653 0.32572 -0.40315 0.10607 -0.14793 0.064759 0.033323 0.089087 -0.87873 -0.48173 0.33717 -0.033535 0.31254 0.55025 -0.052608 -0.43092 0.8843 -0.33017 0.1881 0.69724 -0.069737 0.90151 -0.11358 0.071018 0.10644 -0.23237 0.14778 0.35904 -0.18018
importance 0.31004 0.11147 0.83369 0.49772 -0.0052369 0.35628 0.17676 0.15662 -0.1721 0.058289 0.24874 0.57986 -0.076677 0.059372 -0.30231 -0.25724 0.30846 -0.0643 -0.35999 -0.45574 -0.21196 0.3631 0.23172 -0.4243 -0.78477 -0.60979 0.019337 0.13925 -0.068517 -0.44673 -0.30815 -0.012153 -0.30311 -0.44351 -0.25561 -0.052766 -0.56232 -0.22612 5.8336E-4 0.014128 -0.43106 -0.057921 0.074348 0.066363 0.30235 -0.46215 -0.38454 0.6231 0.47817 0.54607 -0.37443 -0.48157 0.019111 -0.24082 -0.052353 -0.09255 0.29176 -0.21547 -0.28674 -0.67798 0.78491 0.2425 -0.21887 0.077663 -0.16501 -0.69786 -0.37976 -0.72054 0.50519 0.18225 0.25044 -0.38019 -0.57002 -0.46431 0.03388 -0.46288 0.55321 -0.099823 -0.22693 -0.69664 -0.073849 0.11797 0.25834 0.72098 0.55931 -0.06958 0.1928 0.07864 0.34628 -0.29185 0.17334 -0.12484 -0.032272 -0.237 -0.79867 -0.17881 0.082226 0.1003 -0.17327 0.40266
inmate 0.12934 0.40755 -0.11234 0.14533 -0.28957 0.64273 0.61458 0.48832 -0.0010339 0.39256 -0.16749 -0.21227 -0.39531 0.39851 0.25413 -0.9786 -0.5707 0.40496 0.59132 -0.30376 -0.41588 -0.25947 0.62214 -0.10042 -0.62875 -0.26995 -0.076714 0.26547 0.04401 -0.24639 -0.097997 -0.19884 0.28494 0.059822 0.043997 0.65583 -0.15914 0.16975 -0.33432 0.14375 -0.51055 0.24362 0.44303 -0.22382 0.5836 0.37737 -0.53441 -0.018988 -0.070634 0.085221 0.26765 0.6376 0.35603 -0.0023635 -0.26663 0.087766 0.286 -0.015317 0.1723 -0.4394 -0.21907 0.11835 -0.34424 -0.15848 -0.65565 0.33284 -0.28113 -0.76291 0.29019 -0.42256 0.34947 -0.44109 -0.17461 -0.93433 0.8121 0.23806 0.37328 0.019166 0.30877 -0.47772 -0.28655 -0.35737 0.28137 1.0912 0.035108 0.7446 -0.023172 0.052721 -0.30597 0.57319 0.40604 0.90732 0.5638 0.36625 -0.0010318 0.56986 -0.76215 0.30596 0.15872 -0.4654
Harvard 0.7414 -0.20662 -0.082369 0.01876 0.59828 0.63838 -0.082182 0.040749 -0.55093 0.46736 -0.056787 0.45113 0.54428 0.29831 0.32953 -0.47066 -0.38689 -0.43819 0.29313 0.025427 -0.073037 -0.019528 0.50359 -0.54573 -0.8789 -0.46985 -0.85408 0.25904 -0.79306 0.29279 0.31155 -0.094416 0.43435 0.04816 -0.36815 0.29699 -0.35778 0.45677 -0.41248 -0.29892 0.0080318 0.12488 0.19215 -0.12115 1.0096 0.48859 -0.044243 0.19936 0.097888 0.73922 -0.26125 0.056978 -0.56036 0.49419 -0.59622 -0.26234 -0.10916 0.73076 -0.20037 -0.59409 0.35998 -0.096247 0.29559 0.17793 -0.19403 0.1432 -0.35423 -0.58486 -0.03358 0.14643 0.30149 -0.0039975 -0.23423 -0.38939 -0.027666 -0.10425 0.46231 0.21846 -0.85747 -0.77993 -0.093744 0.15732 0.86386 0.42024 0.18401 0.10433 -0.38594 0.2446 -0.018642 0.1857 0.20758 0.75798 0.20716 -0.10865 -0.5487 0.54374 -0.14236 0.69387 -0.38087 -0.22907
psychology 0.65735 0.26924 0.7575 0.13406 0.030093 0.30166 -0.25515 -0.27606 -0.71719 0.41582 0.22129 0.77386 -0.052648 0.19073 -0.057419 -0.55123 -0.11881 -0.32474 0.37706 -0.12258 -0.23558 -0.36262 -0.029718 -0.4415 -1.3614 -0.12557 -0.50581 -0.22653 -0.72017 -0.16906 0.18411 -0.42456 0.63738 -0.2961 -0.71708 0.37217 -0.38413 -0.099857 0.2821 -0.17505 -0.19135 -0.18728 -0.048904 -0.28197 0.58933 0.34948 -0.022507 0.30798 -0.015781 0.75804 -0.48104 -0.38049 -0.14324 0.044576 -0.41443 0.094231 0.15501 0.42523 -0.37361 -1.1043 0.13972 0.42065 -0.42318 0.31217 -0.33914 0.28951 -0.29373 -0.38706 -0.027666 -0.11253 0.6092 0.13015 -0.25725 -0.63309 0.26741 0.29119 0.37701 0.20964 -0.47108 -0.63912 -0.11506 0.071041 0.81281 0.34864 0.16011 0.13245 -0.032746 0.42051 -0.14336 0.17079 0.69533 0.4435 0.32615 0.2611 -0.36938 0.31469 0.09778 0.19887 -0.63874 -0.09905
medal -0.36718 -0.85639 1.007 0.5582 0.2116 0.39958 0.45312 1.0423 0.077666 0.24084 -1.1745 -0.45523 -0.61527 0.29697 -0.3858 0.07557 0.12456 -0.03565 0.67951 -0.26735 -0.51459 -0.76969 0.25832 0.23575 -0.50177 -0.56969 -0.69504 -0.2511 -0.053719 -0.62221 0.17664 -0.037606 0.78854 -0.32319 -0.10448 0.43115 -0.053772 -0.21943 -0.47393 0.029227 -0.097504 0.12852 0.41307 -0.50726 0.3113 -0.53752 -0.2659 -0.21759 0.22953 0.39093 -0.76442 -0.92151 -0.10673 0.30682 -0.25535 -0.30991 0.76526 0.1489 0.20928 0.28533 0.47228 0.0018376 0.50347 -0.1203 0.24051 -0.66 -0.46861 -1.0741 -0.053575 -0.77424 0.096326 0.23792 -0.19192 -0.55987 0.096125 -0.27075 0.41746 0.39001 -0.077992 -0.48629 0.050933 0.44786 1.4362 0.45695 0.30487 0.32524 0.64035 -0.0095944 -0.41352 0.42887 0.62012 0.053228 0.39268 -0.51871 -0.42467 -0.17823 -0.51076 0.70713 -0.41273 0.1505
company 0.493 -0.18244 -0.22167 -0.069351 0.043557 0.072973 -0.047024 0.205 -0.27468 0.47139 -0.24804 0.31629 -0.64785 -0.5531 -0.14109 -0.64892 0.59387 0.16223 -0.24921 -0.33754 -0.083005 0.33262 0.64795 -0.5709 -0.26019 -0.4226 -0.20867 0.031571 -0.022518 -0.24826 -0.64872 0.18336 0.38338 -0.22094 -0.40417 -0.33611 -0.15675 -0.10795 -0.23565 0.46017 -0.20504 -0.50116 0.23802 0.10163 0.20368 -0.27017 0.0064648 -0.10403 0.21927 -0.051736 0.15123 0.22007 -0.022416 0.62143 0.08787 0.039336 0.60191 0.18268 0.098711 -0.03656 -0.21112 -0.32518 -0.020293 0.19861 -0.21033 -0.21368 -0.44352 -0.33818 -0.018314 0.3987 0.35234 0.0070945 0.026267 -0.22209 0.30508 -0.23688 0.3302 -0.21315 -0.38229 -1.0138 -0.38589 -0.056015 0.3171 0.79743 -0.01427 -0.1944 -0.13076 0.35153 0.13536 0.42015 0.47998 0.14374 0.8531 0.021715 -0.093048 0.06981 -0.29526 0.30411 -0.064999 -0.060055
live -0.11863 0.12315 0.27613 0.56087 -0.33421 0.31301 0.098859 0.46883 -0.43208 -0.027498 -0.56419 0.52605 -0.59165 0.29817 -0.14816 -0.51432 -0.1 -0.59467 0.065459 -0.39562 -0.49975 -0.17693 0.36418 -0.27525 -0.15565 0.22835 -0.17717 0.52587 -0.023735 -0.2132 -0.49872 0.06556 0.38987 0.22258 -0.24768 0.3432 -0.25647 0.23962 -0.26838 0.21693 -0.43481 -0.46666 -0.1067 -0.029548 0.40846 -0.32614 6.1995E-4 0.61258 0.28194 0.38921 0.40067 -0.036086 -0.22028 0.52695 -0.27227 0.38101 0.078489 -0.86328 -0.055775 -0.41411 -0.076468 0.12477 -0.1737 -0.38733 0.18074 -0.25362 -0.33334 -0.5357 -0.31055 -0.6456 0.2705 -0.25178 -0.30847 0.028381 0.092164 -0.14136 0.031477 0.21697 -0.38265 -0.7497 -0.29872 -0.17627 -0.029659 0.52117 0.8673 -0.31298 -0.55693 0.15363 0.16949 0.35386 0.3756 0.21396 0.093157 0.44203 0.29449 -0.32618 -0.47979 -0.28685 -0.099035 0.19465
holy -0.088902 -0.56743 0.37949 0.77415 0.51261 0.5094 0.40438 -0.11536 0.55688 0.059728 -0.52379 -0.22889 -0.87074 -0.02232 0.65507 -0.75104 -0.73386 0.052507 -0.31191 -0.3882 -0.74976 0.024891 0.73614 -0.65474 -0.65012 0.25567 0.18292 0.49667 -0.045323 -0.35806 -0.13546 0.39169 -0.23846 -0.067942 -0.32912 1.1566 -0.41197 -0.67949 -0.28581 0.37625 -0.13743 -0.6933 0.17677 -0.25876 0.61445 0.10514 -0.22147 0.42615 -0.44189 0.92825 0.061684 -0.025241 0.16229 0.60486 0.15659 -0.44078 0.14688 0.0022502 0.15102 -0.54736 0.062689 1.274 -0.22512 -0.46615 0.28548 -0.43565 0.61947 -0.56859 -0.043359 -0.44634 0.75869 -0.10572 -0.54369 -0.23625 -0.12448 -0.074095 0.4496 -0.34775 0.035699 -0.83156 -0.4 0.31622 0.58713 0.60324 0.34906 -0.47194 -0.17192 0.052839 0.17451 -0.58924 0.27261 -0.10533 -0.015195 -0.44449 -0.45769 0.063018 -0.34149 0.36245 -0.16293 0.11344
ticket -0.083663 0.056396 0.088638 0.40752 0.0065134 0.63094 0.08069 -0.10397 -0.74782 0.1688 -0.26191 0.20583 -0.48924 -0.4882 0.17837 -0.26052 0.78505 0.046873 -0.23061 -0.67115 -0.3953 -0.54919 -0.40212 -0.35822 -0.2086 -0.78853 -0.69899 0.8325 0.071856 -0.54619 -0.11481 0.31371 0.094785 0.31865 0.26867 0.15458 0.43561 0.060243 0.15011 0.71124 0.099228 -0.25077 0.69178 -0.36544 -0.29619 -0.29499 -0.37135 -0.11485 0.11646 0.18836 -0.73041 -0.21767 -0.27246 0.98921 -0.63519 -0.27159 0.37807 -0.063 -0.1421 -0.3606 -0.33789 -0.12428 0.062372 -0.49141 0.13478 -0.33407 -0.62242 -0.84232 0.076891 -0.38605 -0.063909 -0.42373 -0.75509 0.42685 -0.13283 -0.26005 0.24418 0.22955 -0.24884 -1.2265 -0.41264 0.11948 0.54597 0.48913 -0.30268 0.46324 -0.28674 -0.13467 -0.22967 0.020992 -0.13024 -0.048038 -0.024318 -0.16592 0.41757 -0.11392 -0.11028 0.32698 0.075001 0.034297
victory -0.2534 -0.21962 0.26955 0.67643 0.38131 0.029554 0.4893 0.52981 -0.6015 -0.57808 -0.032888 0.13482 -1.0807 0.72097 -0.29168 -0.32716 -0.14255 0.12194 0.71411 -0.25469 -0.091879 -0.22657 0.54078 -0.45962 0.22072 -0.31843 -0.52396 -0.50059 -0.47903 -0.027266 -0.0058072 0.34284 0.036626 -0.011222 0.022897 0.10145 -0.11759 -0.36519 -0.45409 0.30007 -0.16432 0.062385 0.27824 -0.016167 0.2667 -0.25679 -0.41759 0.18453 0.042192 0.59701 -0.6139 -0.66219 -0.2169 -0.12599 -0.27851 -0.082179 1.159 -0.15647 -0.49503 -0.82472 0.59421 -0.36488 0.35623 -0.067388 -0.23425 0.1329 -0.28999 -1.0326 -0.029325 -0.96888 -0.31826 -0.43012 0.13186 0.24638 0.47546 -0.02142 0.3094 0.072875 0.11844 -1.2133 -0.16362 0.33886 0.84612 0.18528 0.022163 0.26969 0.0097901 0.45898 -0.31717 -0.0086609 -0.24088 -0.1471 -0.11141 -0.26857 -0.11812 -0.32063 -0.34644 0.92815 0.087222 0.2936
football 0.018234 0.54288 0.52432 0.49056 0.011965 0.071937 0.11009 0.52198 -0.49458 -0.066202 -0.40289 0.42903 -0.60505 0.18085 -0.72519 -0.14262 0.18148 -0.22546 0.60051 -0.06424 -1.3115 0.21363 0.16094 -0.31143 -0.41936 -0.79597 -0.49968 0.1152 -0.4626 -0.3903 0.3453 -0.17369 -0.074712 0.10057 -0.16428 0.25524 0.12064 -0.4526 -0.22817 0.37073 0.040425 -0.31677 0.24985 -0.43545 0.30153 0.032525 -0.49894 0.58038 0.022952 0.52358 -0.24481 -0.069338 -0.20066 0.74726 -0.66026 -0.32292 0.093699 0.48079 -0.22959 -0.59943 -0.020746 0.13153 0.074431 -0.39793 -0.050819 -0.558 -0.45784 -0.57822 -0.15752 -0.2947 0.4369 0.2969 -0.19686 -0.44151 0.039035 0.072095 0.038874 -0.47527 -0.35073 -0.50605 -0.25565 0.1489 0.43236 0.24775 0.24459 0.39646 -0.67336 0.045976 0.20094 -0.44685 0.76435 0.13447 0.45556 0.062638 0.28622 -0.10659 -0.60935 -0.085404 -0.043759 0.27454
seepage -0.039391 -0.20188 -0.086036 0.1351 -0.18739 0.18267 -0.064795 0.16349 -0.081887 0.11302 -0.57872 0.24702 -0.45581 -0.44942 -0.15552 -0.28685 -0.13206 -0.13802 0.0074922 -0.39271 0.015959 -0.09668 0.4134 -0.42016 -0.71567 -0.35243 -0.14241 0.19944 -0.099282 -0.14722 -0.42137 -0.12439 -0.041169 0.044737 -0.40081 0.34495 -0.23339 -0.070273 0.34702 0.12269 -0.22191 -0.53803 0.28275 -0.15745 0.47613 0.12592 0.056631 0.40729 -0.43931 0.039867 0.067808 0.48666 0.19904 -0.075724 -0.28656 0.19097 0.59374 -0.092378 0.2158 -0.11745 0.064329 0.16141 -0.085236 -0.070603 -0.08721 -0.14908 0.047281 -0.37349 0.65017 -0.078659 0.61075 -0.45665 -0.53372 0.17358 0.021214 0.14292 0.93966 0.52886 -0.13905 -0.65152 -0.45328 -0.29421 0.4755 0.72357 0.51808 -0.4033 -0.21234 0.28686 0.33497 -0.46277 0.42667 0.27483 0.39146 0.25335 -0.21918 -0.31312 -0.11291 0.087391 0.32115 0.37024
rook -0.089275 -0.10138 0.26041 0.044536 -0.29097 0.66213 0.24213 -0.095268 -0.13753 -0.3344 0.025494 0.5897 -0.47741 -0.016343 -0.27865 -0.085595 0.14606 -0.31601 0.90004 -0.14811 -0.67097 -0.20321 0.31002 -0.51739 -0.38475 -0.43317 -0.27295 0.10227 -0.32494 -0.15859 0.24974 -0.1455 0.15811 -0.047764 -0.25809 0.69316 -0.19949 0.037133 -0.28196 0.068431 -0.079987 -0.088311 0.5907 0.12631 -0.0048967 0.090383 -0.32501 0.24448 -0.26872 0.35824 0.59812 -0.043184 -0.066322 0.66217 -0.77223 0.18014 0.34085 0.014017 0.0063608 -0.58825 -0.053522 0.14629 0.23278 -0.21841 0.037526 0.34463 0.014661 -0.98597 0.34025 -0.16345 -0.0094208 -0.085352 -0.26701 -0.31785 0.087475 0.30689 0.14757 0.2798 -0.37591 -0.24138 -0.31321 0.076499 0.19221 0.42768 0.52587 0.43966 0.32799 0.29441 0.028059 0.16337 0.54011 -0.16933 0.73098 -0.058284 -0.050925 -0.14017 0.12712 -0.12984 0.22187 0.13906
stroke 0.23895 0.40176 -0.21553 0.10415 0.041048 0.63984 -0.15559 0.88881 0.12857 0.33662 -0.10928 -0.30073 -0.052409 -0.25391 -0.68692 0.052109 0.078456 -0.49813 0.54001 -0.30727 0.59707 0.22435 0.64464 -0.086645 -0.65494 -0.48116 -0.8847 -0.021911 -0.18618 -0.59566 -0.067032 -0.29543 0.32904 0.12992 -0.32407 0.29254 -0.024871 0.42235 -0.95159 -0.35849 -0.62665 0.13019 -0.42575 -0.1568 0.29386 -0.10605 -0.62576 -0.31162 -0.55034 0.70456 -0.61828 0.026105 -0.43045 0.34012 -0.22884 0.30538 0.41123 0.049554 -0.49545 -0.6662 0.32028 -0.081981 -0.18619 -0.46678 -0.45114 0.58667 -0.20042 -0.76607 0.61643 -0.78303 0.43383 0.40834 -0.16152 -0.40445 0.1286 0.24003 0.31592 0.39144 -0.49103 -0.95572 -0.73319 -0.28127 0.45368 0.56694 0.49216 0.11325 0.65631 0.35115 -0.56708 0.094554 0.3774 -0.59361 0.22729 0.60212 0.13421 0.016496 -0.25198 0.41607 -0.020627 0.025042
environment 0.20774 -0.13772 0.52021 0.4006 0.10022 0.24433 -0.50134 -0.30409 -0.16802 0.37533 -0.40986 0.52047 -0.41569 -0.054839 -0.15563 -0.81151 0.37006 0.17928 -0.23765 -0.32465 -0.30578 0.059242 -0.20001 -0.4439 -0.82827 -0.21643 0.15397 -0.15544 -0.26597 -0.029416 -0.055881 -0.17616 0.35333 0.055506 -0.54929 -0.038154 -0.078158 0.16008 -0.062536 0.017002 -0.18479 -0.48305 0.46317 0.11509 0.3827 -0.46252 -0.15326 0.44592 0.28933 0.15505 0.0062048 -0.46946 0.17327 -0.10574 -0.52443 0.40494 0.34803 -0.28176 -0.14402 -0.65784 0.26537 0.061183 -0.084882 0.011846 -0.11602 -0.060616 -0.20229 -0.68544 0.12185 -0.031176 0.33191 -0.51879 -0.40007 -0.70742 0.028549 -0.38558 0.51737 0.12537 0.051304 -0.84524 -0.52387 -0.099348 -0.22937 0.23095 0.26479 0.033684 -0.13267 0.12367 0.71573 -0.043428 0.5031 -0.68044 0.47813 0.75003 -0.30041 -0.24065 -0.62653 -0.086031 -0.1341 0.46927
coffee -0.13841 0.060174 -0.14856 0.71177 -0.23321 0.46613 -0.13352 0.13349 -0.21238 0.30337 0.23438 -0.3798 -0.37065 -0.63244 0.11802 -0.36427 0.42433 -0.32757 -0.022408 -0.18217 -0.63379 -0.46024 0.42957 -0.13428 -0.63789 -0.63824 -0.61032 -0.055133 -0.19529 -0.14203 -0.25418 0.2467 -0.10195 -0.26415 -0.26674 0.72544 -0.40111 0.11085 -0.051751 0.096597 -0.43713 -1.0625 0.32643 -0.20625 0.25424 0.57329 0.4919 -0.054244 0.032404 0.31418 -0.17734 0.29273 -0.22707 0.4299 -0.06173 -0.22269 0.20833 -0.21405 -0.10998 -0.40173 -0.14025 -5.8435E-4 -0.1547 -0.80435 -0.4162 -0.28948 -0.1785 -0.92456 0.38657 -0.087872 0.19152 -0.0067233 -0.64627 0.3578 0.073518 0.2486 0.39666 -0.24448 -0.15833 -0.85826 -0.30914 0.57931 0.25524 -0.14447 0.0013254 0.11879 0.19559 0.41178 0.23148 0.31028 0.74707 -0.16684 0.22519 0.31308 -0.54755 0.2355 -0.67252 0.20642 -0.13844 0.49911
baby 0.087839 0.34389 -0.024068 0.19546 -0.49801 0.81014 0.035773 0.62672 0.05846 0.2291 -0.51826 -0.21177 -0.59152 -0.14274 0.12714 -0.15233 -0.14491 -0.43487 0.037404 -0.36078 -0.7752 -0.45658 0.63821 0.079177 -0.15007 -0.25458 -0.0267 0.38993 -0.28928 -0.41565 0.19321 -0.2734 0.31626 -0.83705 -0.055119 -0.025745 0.1231 -0.11087 -0.12035 -0.31157 -0.81057 -0.51873 0.2543 0.37073 0.40192 -0.1459 0.068814 0.12821 0.099181 0.3369 0.056444 -0.4295 -0.027606 0.46828 0.45854 0.29559 -0.20052 -0.20265 0.24094 -0.23186 -0.063029 0.19985 -0.038938 -0.40324 -0.53958 -0.017993 0.061061 -0.77394 0.61521 -0.15662 0.12459 0.030523 -0.48184 -0.087355 0.33715 -0.20499 0.63866 0.12706 -0.31341 -1.1262 -0.49103 -0.25585 0.051196 0.40853 0.35231 0.88276 0.44081 -0.003637 -0.18839 0.0066963 1.1032 0.41086 0.70681 0.23194 -0.35545 -0.1779 -0.30425 -0.066937 0.24655 0.045719
personnel 0.17812 0.58644 0.33718 0.16134 -0.10685 0.47926 -0.054516 0.059904 -0.48806 -0.16346 -0.93555 0.53531 0.026007 0.10607 -0.11421 -0.47861 0.4937 0.41014 0.2082 -0.10891 0.04863 0.73253 0.38516 -0.36495 -0.48707 -0.93445 0.41183 0.63949 0.22536 -0.37616 0.09429 0.14466 0.20271 -0.0048005 -0.39292 0.10508 0.057086 -0.39692 -0.015256 0.59384 -0.44806 -0.24867 0.12958 0.037841 0.0098539 0.25208 0.023922 0.39739 -0.26368 0.19108 -0.25836 0.12143 0.64641 -0.0013203 -0.24621 0.038154 0.39041 -0.13372 -0.08968 -0.63943 -0.34143 0.053269 0.079969 -0.36679 -0.087406 -0.24905 -0.52533 -0.97069 -0.21514 0.20343 0.050694 -0.13255 0.026099 -0.87086 0.20358 -0.3959 0.26452 0.21975 0.090985 -0.72715 -0.41889 0.029746 0.78492 0.90869 0.28466 0.13998 0.36032 -0.42772 0.069882 0.54926 0.40052 0.061284 0.33208 -0.17107 0.20678 0.069862 -0.28205 0.21639 0.16822 0.12078
family 0.45585 0.049508 0.13886 0.15076 -0.46573 0.64629 -0.096812 0.40996 -0.16268 0.13907 -0.29932 0.30689 -0.91957 0.021617 0.34137 -0.57491 0.1315 -0.096454 0.19813 -0.52219 -0.93624 0.041805 0.64398 -0.48176 -0.41003 -0.23071 -0.36162 0.54557 -0.16787 -0.35678 -0.29304 0.1235 0.31539 -0.15623 -0.30892 0.26652 0.004133 -0.086603 -0.14224 0.30667 -0.30333 -0.22102 -0.036596 0.27422 0.27711 -0.30502 -0.11475 0.39714 0.0026943 0.16284 0.069142 0.2272 0.056567 -0.020984 0.07169 0.12301 -0.56836 -0.078368 -0.036096 -0.39679 0.27637 -0.34998 0.071918 -0.37619 -0.23217 -0.39394 -0.05994 -0.48892 0.13721 -0.35242 0.047496 -0.11248 -0.38813 -0.10869 0.44569 -0.11008 0.31406 -0.20328 -0.16287 -0.62328 -0.31828 -0.12191 0.24175 0.78911 0.27331 0.42242 -0.22219 -0.01964 -0.077417 0.37632 0.51505 -0.069085 0.3456 0.21068 -0.052835 0.19102 -0.047517 0.016073 -0.5018 -0.25538
hypertension 0.32572 0.37412 -0.14457 -0.058999 -0.28798 0.18508 0.2113 0.26686 -0.43063 0.53122 -0.50928 0.14184 0.28548 -0.34193 -0.48207 -0.29128 0.082089 -0.2329 -0.096634 -0.68525 0.63153 -0.055072 0.70476 0.070395 -0.89956 0.17995 -0.54679 -0.041379 -0.10097 -0.45849 0.16799 0.098662 0.44658 -0.38085 -0.16273 0.52527 0.053453 0.24541 -0.45343 0.042422 -1.19 0.30094 -0.43986 -0.53657 0.85898 0.61906 -0.14132 -0.061909 -0.031525 1.0573 -0.64417 0.091043 -0.30573 -0.048332 -0.22574 0.47357 -0.027444 -0.057889 0.15749 -0.94341 0.17568 0.029323 -0.49016 0.26772 -0.28032 0.074003 -0.31879 -0.66449 0.64078 -0.055842 0.37056 0.39143 -0.6127 -0.43839 -0.3732 -0.27178 0.59241 0.1833 -0.30517 -1.0161 -0.86835 -0.080281 0.44318 0.28851 0.56539 0.50269 0.14645 0.054092 -0.14345 2.6359E-4 0.67197 -0.0041263 0.22535 0.75398 -0.19485 0.46236 -0.35622 0.44888 0.28988 0.14162
president 0.34043 0.43903 -0.24613 0.37484 0.3126 0.66544 0.015679 0.43169 -0.55667 0.076278 -0.69327 -0.2081 -0.36251 0.40722 -0.22432 -0.4534 0.37605 0.30138 -0.41303 0.18525 -0.13302 0.22684 0.08373 -0.71748 -0.77153 -0.50434 -0.2339 0.62323 -0.37914 0.020502 -0.019773 -0.3473 -0.37598 -0.32056 -0.21968 -0.26 -0.10711 0.11562 -0.53159 0.21694 -0.23813 -0.14763 0.39868 -0.032673 0.50876 0.0949 -0.17588 -0.022861 0.24492 0.15654 -0.10324 -0.029871 -0.17182 0.34104 0.21001 -0.67252 0.47515 -0.312 -0.047757 -0.42022 0.24471 -0.40253 0.42282 0.17188 -0.60227 -0.50971 -0.41541 -0.54754 0.27424 -0.32026 -0.18593 0.096927 0.14565 -0.48217 -0.00275 -0.42879 0.57049 -0.066398 -0.34527 -0.95217 0.28523 0.27051 -0.032775 0.52947 -0.091362 -0.058774 -0.59842 0.17843 -0.17508 0.089516 0.38457 0.14855 0.18432 0.2488 -0.10642 0.23852 -0.24469 0.60956 -0.45664 0.12419
atmosphere -0.30403 -0.59587 -0.086731 0.59286 0.058813 -0.06597 -0.41545 0.21702 -0.18455 0.47811 -0.88368 0.57315 -0.51761 0.029055 -0.68721 -0.58071 0.26206 -0.43404 0.049708 -0.064343 -0.66131 -0.19528 0.30667 -0.47496 -0.79109 -0.51755 -0.25841 0.078156 -0.37714 -0.25544 -0.032023 -0.040787 0.3129 0.82125 -0.25433 0.29774 0.24223 -0.086993 0.16755 -0.35469 -0.50467 -0.19955 0.75812 0.098445 -0.18631 -0.14177 -0.42491 0.43655 0.034823 0.30967 -0.69015 -0.027014 0.46976 0.12729 -0.83227 0.54244 0.60287 -0.46561 -0.050102 -0.60241 0.29043 0.50399 -0.21889 0.090775 -0.50528 -0.20651 -0.15401 -0.61502 0.37336 -0.36136 0.36759 -0.52788 -0.69406 -0.10535 0.16241 0.38116 0.30486 -0.22723 -0.27726 -0.31982 -0.30942 0.60299 0.11283 0.22461 0.30168 0.10329 -0.24641 0.045411 0.86217 -0.5853 0.21815 -0.51777 0.063752 0.51291 -0.13907 0.15298 -0.62547 -0.24104 -0.20548 0.28221
practice 0.23992 0.24432 0.32817 0.4696 -0.013589 0.28221 0.53553 0.31993 0.020395 -0.075626 0.02318 0.4254 -0.037317 0.13393 -0.369 -0.52629 0.16774 0.014456 0.37131 0.23171 -0.17223 0.21541 0.53478 -0.32616 -0.82548 -0.40078 -0.25082 0.2479 -0.16307 -0.065425 0.18378 0.04331 0.070919 0.15744 -0.1442 0.66616 -0.28026 -0.24697 -0.6065 0.65183 -0.3264 -0.64957 0.18575 0.10332 -0.18739 -0.051474 -0.22327 0.39629 -0.22518 0.51129 -0.046466 -0.25355 -0.29335 0.46439 -0.35544 0.32421 0.14568 0.14358 -0.43308 -0.63655 0.41613 -0.13669 -0.23518 0.27603 0.29813 -0.011522 0.24887 -0.1058 -0.087419 0.054411 0.46278 -0.20982 -0.0086627 -0.7219 0.13527 -0.054423 0.10123 -0.32838 -0.44354 -0.91359 -0.11628 -0.4462 0.32629 0.71145 0.14844 0.18454 0.21339 0.14825 0.2284 -0.086308 0.54046 0.048956 0.3762 0.26032 -0.44205 -0.29303 -0.26742 0.29045 0.30894 0.077648
movie 0.047094 0.22328 0.32477 1.0279 0.033451 0.69808 -0.087436 0.46979 -0.39163 0.48874 -0.13811 0.11779 -0.59111 -0.25012 0.19714 -0.194 -0.1245 -0.24882 0.19702 -0.65341 -0.62432 -0.32512 -0.08927 0.0047418 -0.68935 -0.22001 -0.44342 0.23044 -0.078498 -0.36138 -0.059607 -0.29762 0.55125 -0.28302 0.10237 -0.11359 0.37225 -0.68358 0.31628 -0.089933 0.11242 -0.21981 0.40037 -0.044601 0.27634 -0.025017 -0.35144 -0.13154 0.12635 0.40261 -0.094621 0.51335 0.19953 0.4096 -0.33785 0.41747 0.013358 -0.37133 -0.14557 0.115 -0.1967 0.22795 -0.25361 0.091072 -0.20535 -0.53342 -0.22218 -0.48331 -0.14076 -0.28572 0.47421 -0.25802 -0.43204 0.010741 -0.12262 0.5769 0.45459 0.39168 -0.81743 -1.1568 -0.35779 0.34695 0.298 0.55999 -0.012882 -0.35335 -0.48182 0.48919 -0.19779 0.41186 0.28782 -0.015212 0.65821 -0.21752 0.19714 0.13552 -0.62829 0.42145 0.066948 -0.60397
popcorn 0.077711 -0.22516 -0.34608 0.82367 -0.51781 0.64058 -0.031643 0.4754 -0.37649 0.56759 -0.30926 -0.44071 -0.10662 -0.77582 -0.12391 -0.14275 -0.027249 -0.32079 0.12107 -0.87492 -0.51709 -0.49109 0.62503 0.20126 -0.75292 -0.38425 -0.34418 -0.29255 -0.031382 -0.19259 0.21762 0.3296 -0.18704 -0.34509 0.060583 0.34948 -0.01897 -0.23961 0.21677 -0.11376 -0.53383 -1.0389 0.029801 -0.34305 0.29155 0.17349 0.6554 0.16764 0.12548 0.22912 0.049849 0.55686 0.0014454 0.88479 -0.51051 0.61044 0.089624 -0.08379 -0.11069 -0.067692 -0.088549 0.068499 -0.39955 -0.25627 -0.48343 -0.10225 -0.058927 -0.85738 0.39279 -0.04378 0.3467 -0.27029 -0.61852 0.19983 -0.28274 0.20425 0.26524 0.074124 -0.2091 -1.096 -0.27224 0.63998 0.21348 0.2087 0.27709 0.30417 0.14783 0.081033 0.18328 0.034531 0.84073 0.0081717 0.31503 -0.1113 0.048499 0.18344 -0.948 0.046404 0.22664 0.13568
recommendation -0.12691 -0.23376 -0.13061 0.018224 -0.34376 0.73891 0.27554 0.17805 -0.37517 0.21839 -0.17316 -0.24586 -0.035469 -0.09503 -0.22299 -0.71677 0.6382 0.17977 0.088205 -0.18843 0.24739 -0.081625 0.057398 -0.30915 -1.0551 -0.50678 0.18158 0.57063 0.046432 -0.27865 0.11764 0.28835 0.15382 -0.17916 -0.039684 0.10326 -0.42381 -0.43292 0.035985 0.51838 -0.58089 -0.20594 0.21477 0.26252 0.79312 -0.11453 -0.080907 -0.0028003 0.051296 -0.24956 -0.098226 -0.29011 0.14029 0.017949 -0.42294 0.1025 0.40665 0.45056 -0.010496 -0.1922 0.72231 0.03882 -0.28648 0.12881 -0.34858 0.15326 -0.23026 -0.19434 -0.015377 0.14193 0.078135 -0.12954 -0.27673 -0.35902 0.16517 -0.73012 -0.0076112 -0.19203 -0.86907 -0.84799 -0.63482 -0.071652 0.12181 0.9616 0.22335 0.16851 -0.023561 0.0036896 -0.14988 0.1514 0.51241 -0.25901 -0.39905 0.040054 -0.54947 -0.38961 -0.2198 0.91568 0.019716 0.055134
focus 0.17178 0.31598 0.2574 0.52157 -0.26842 0.37635 0.0021899 0.1926 -0.57368 0.10721 0.25645 0.83965 -0.356 -0.15215 -0.14561 -0.078767 0.39963 0.31892 -0.012624 -0.26598 -0.24033 0.082803 0.36055 -0.56611 -0.48975 -0.19002 -0.26804 0.48022 -0.073176 -0.44071 -0.21171 -0.29023 0.17523 -0.15054 -0.35044 0.20193 -0.31742 -0.20982 -0.25151 0.074104 -0.43199 -0.14852 0.31253 -0.079031 0.30296 -0.1858 0.13142 0.52149 0.23474 0.22507 -0.19714 -0.30312 0.081019 -0.066254 -0.40723 0.18276 0.36642 -0.15207 -0.31551 -0.36324 0.73908 0.21886 -0.31896 0.02384 -0.16132 -0.25012 -0.35346 -0.12559 0.36158 0.34321 0.22784 -0.20502 -0.051437 -0.51936 0.20735 -0.38316 0.36965 0.15025 -0.332 -1.0207 -0.20652 0.022842 0.099932 0.77233 0.1566 -0.16463 -0.24316 0.093495 0.24084 -0.11604 0.27489 -0.28198 0.276 -0.16979 -0.35112 -0.2979 -0.1206 0.14575 0.066025 0.78626
attempt -0.020859 -0.52668 -0.099419 0.41099 0.20352 0.3146 0.13952 0.53877 0.057343 0.25556 0.10938 -0.12599 -0.67449 0.13732 -0.31494 -0.056995 0.23737 0.26062 0.014253 -0.1093 -0.36483 0.73303 0.44234 -0.48616 -0.68064 -0.46665 -0.099418 0.37065 0.3614 -0.33634 0.025742 -0.47114 0.16102 -0.10139 0.18582 0.11467 0.054956 -0.10057 -0.41092 0.25351 -0.040562 -0.16158 0.50314 0.25767 -0.1405 0.084523 -0.22493 0.16309 -0.35739 0.45735 -0.164 -0.60517 0.18124 -0.17195 -0.29399 -0.055331 0.55872 0.27201 -0.55824 -0.31134 -0.066541 0.096349 -0.11257 -0.27613 -0.017118 0.34467 -0.020742 -1.1037 0.21565 -0.28989 0.5547 -0.31025 -0.20201 -0.020867 0.59269 0.23656 0.5439 0.0061335 -0.55416 -0.68137 -0.061275 -0.45046 -0.025711 0.78597 0.16447 0.040106 -0.68743 -0.21135 -0.16031 -0.20218 0.18863 -0.1778 -0.023703 0.046572 0.098005 0.075231 -0.39133 0.45499 0.56217 0.078698
approach 0.092298 -0.033083 -0.11391 0.59624 0.19922 0.62797 -0.0096938 0.34007 -0.16351 -0.014773 0.26035 0.48223 0.027293 -0.05858 -0.22896 -0.37778 0.58872 0.017373 -0.20608 -0.18982 0.087551 0.28162 0.36273 -0.30119 -0.807 -0.34041 -0.10698 0.19779 -0.29482 -0.34684 0.051596 -0.42105 0.31984 0.04269 -0.43394 0.021234 0.041756 -0.22466 -0.13817 0.18271 -0.086377 0.11322 0.2743 -0.19803 0.17784 -0.1667 -0.25373 0.21931 -0.034587 0.74759 0.11333 -0.54814 0.16128 0.02293 -0.24188 -0.12088 0.54352 -0.036885 -0.46744 -0.61672 0.65418 -0.10904 -0.15081 0.13538 -0.14133 0.1152 -0.144 -0.24447 0.12558 0.32574 0.23585 -0.352 -0.22377 -0.20614 0.60235 0.14933 0.12775 -0.113 -0.74834 -0.93703 -0.4568 -0.066124 -0.10539 0.70224 -0.19399 0.060338 0.13075 0.11766 0.42387 -0.15629 0.47084 -0.38243 -0.082811 0.062411 -0.33431 -0.43884 -0.12709 0.46459 0.0046658 0.40896
number 0.16917 0.63741 -0.011384 0.36917 -0.23939 0.26444 0.065021 0.26964 -0.52041 0.34581 -0.18199 0.1085 -0.11788 -0.3224 4.0572E-4 -0.062141 0.18983 0.054379 -0.017423 -0.24002 -0.026678 0.27409 0.56126 0.28501 -0.51934 -0.44686 -0.24329 0.3497 0.020706 -0.40553 -0.14046 -0.12989 -0.058788 0.065985 -0.21754 0.089423 -0.09811 0.0025057 -0.31321 0.23883 -0.36251 -0.058925 0.26153 0.28618 0.090624 -0.3311 -0.32939 0.16853 -0.042369 0.38134 -0.02577 -0.099483 -0.53744 0.22951 -0.64184 0.06643 0.27842 -0.073905 -0.002651 -0.48968 0.14328 0.14652 0.11853 -0.26304 0.29096 -0.13293 -0.67375 -1.0644 -0.030002 0.56754 -0.18099 -0.84802 -0.47367 0.02713 0.73898 -0.39431 -0.2054 0.20081 -0.10145 -0.45504 -0.56752 -0.03822 0.37927 1.0819 0.75457 -0.34523 0.10228 -0.18213 -0.098465 -0.099854 0.1903 -0.037733 0.18441 0.066263 0.06219 -0.12414 -0.41221 0.35183 0.17284 -0.27075
property 0.48239 0.14628 0.46703 0.17106 -0.57065 -0.3783 -0.11275 0.09786 0.070432 0.17655 0.13094 0.35744 -0.57645 -0.1571 -0.2007 -0.72722 0.31045 0.31307 0.030602 -0.73135 -0.24487 0.021145 0.010447 -0.67792 -0.26788 -0.60197 -0.37288 0.81909 -0.35001 0.060226 -0.15279 0.036311 0.35314 -0.07042 -0.22767 0.48791 0.442 0.33492 0.26396 0.82728 0.17453 -0.69104 0.46175 0.48425 0.33301 -0.50638 -0.25815 0.31854 0.16735 0.35607 0.4385 0.25541 -0.47297 0.44645 -0.04146 0.25174 0.31595 0.0055957 0.20343 -0.45059 -0.10541 0.30251 0.25427 0.048188 -0.076027 -0.056519 -0.24834 -0.81705 0.11349 -0.18708 0.52498 0.11134 -0.32793 0.23525 0.63346 -0.048457 0.17716 0.59613 -0.075875 -0.75879 -0.41775 -0.19946 0.26843 0.71036 0.34486 0.078583 0.13345 -0.066908 -0.010234 0.49973 0.13647 -0.65281 0.66808 0.51199 0.12873 0.033049 0.31177 -0.095973 0.16385 0.24991
fingerprint -0.14704 0.31767 -0.30568 0.072304 -0.4213 0.42816 0.51653 0.08695 -0.44986 0.39613 -0.10145 0.30688 0.50102 0.25064 0.61652 -0.68451 -0.25802 -0.20406 -0.094926 -0.44401 -0.0019782 -0.22222 0.42466 0.3389 -0.50734 -0.77764 0.0035955 0.30587 -0.17326 -0.83327 -0.044179 0.019387 0.27293 0.39762 -0.14259 0.38865 -0.93942 -0.22502 -0.23471 0.37018 -0.1713 -0.43256 0.41794 0.17386 0.18418 -0.21589 0.09873 0.28292 -0.081316 0.29546 0.02311 -0.13687 0.090932 -0.39471 -0.57397 0.10743 0.62133 0.32787 0.069666 -0.13054 0.043212 -0.13155 -0.12971 0.31081 -0.45142 -0.14159 -0.83842 -0.78008 0.25282 -0.36363 0.50926 -0.178 -0.63549 0.098387 0.29111 -0.17732 0.47298 -0.049632 0.044029 -0.7719 -0.59091 -0.25161 0.64329 0.79364 0.30711 -0.067522 -0.19025 -0.29423 -0.18024 -0.42861 0.47457 0.34608 0.64722 0.65033 -0.31497 -0.18665 0.42251 -0.10774 0.41454 0.34666
reservation 0.033801 0.028187 0.25253 0.18325 -0.26603 0.27383 0.10853 -0.14021 -0.10094 -0.22098 0.054021 0.22528 -0.43306 -0.32672 0.2866 -0.22699 0.34454 -0.28939 -0.1813 -0.34747 0.085829 0.56947 -0.044251 -0.46361 -0.54118 -0.57227 -0.5853 0.4369 -0.28758 -0.43295 0.07654 0.21373 0.17867 0.26317 0.075499 0.52111 0.059563 -0.012295 0.28122 0.77088 -0.43022 -0.45153 0.42629 0.087005 0.29182 -0.15794 -0.50304 0.091959 -0.030715 -0.044214 0.14513 0.18894 0.078104 0.38503 -0.35829 -0.049867 0.41296 -0.5034 0.21018 -0.38374 -0.10979 -0.31229 -0.082185 -0.28731 -0.31463 -0.020083 -0.12472 -0.65649 0.037828 -0.31686 0.065713 -0.33564 -0.38996 0.10228 -0.067078 -0.23004 0.53239 -0.046425 -0.36712 -0.7669 -0.56621 -0.050087 0.16024 0.82412 0.37212 0.33474 0.04711 0.0030442 0.23517 0.24191 0.25393 -0.052647 -0.092001 -0.04986 -0.091319 -0.40326 -0.14516 0.021252 -0.12327 0.17005
block 0.021044 -0.16007 -0.35499 0.56758 -0.4723 0.48023 0.29451 0.48862 -0.20744 -0.16383 0.46958 0.32431 -0.3693 -0.45319 0.042272 0.24788 -0.041963 0.28133 0.050615 -0.37499 0.21483 0.18816 0.33961 -0.52109 -0.36409 -0.71254 -0.27195 0.23749 -0.13951 0.11055 -0.33333 0.0047366 0.17917 -0.046553 0.031167 0.41279 0.18807 0.19175 -0.32768 0.45714 -0.073722 -0.47498 0.33041 0.15579 0.48273 -0.0023032 -0.072944 0.1428 0.31679 0.40656 0.22729 0.016683 0.23877 0.26253 -0.40399 -0.34196 0.60277 -0.17527 0.19732 -0.36954 0.10874 0.33583 -0.33524 0.13933 -0.13018 -0.19185 0.34888 -0.80635 0.17091 -0.28772 0.031354 -0.34631 0.021992 0.12224 0.56205 0.17006 0.40136 0.44048 -0.20263 -0.57772 -0.1512 0.30473 -0.085778 0.88006 0.49696 -0.027728 -0.37028 -0.31383 -0.018236 0.27838 0.061268 0.29473 0.1008 0.70452 0.36488 -0.099201 -0.60713 -0.012273 0.56902 0.36718
fear 0.38271 0.37027 0.17317 0.29142 0.044232 0.032244 0.26445 0.34999 -0.3201 0.22186 -0.50113 0.36778 -0.63035 -0.1214 -0.30999 -0.19205 0.043823 0.56106 -0.069953 -0.43392 -0.31059 0.066728 0.36682 -0.33763 -1.0942 -0.0021932 0.021209 0.61556 -0.13351 -0.59629 0.013546 -0.17233 0.23011 -0.35236 0.044117 0.47649 -0.068164 -0.32796 -0.31105 -0.090927 -0.37207 -0.42942 0.20227 0.37639 0.30099 -0.35895 -0.029801 0.57342 -0.19027 0.94979 -0.11096 -0.0622 -0.36893 0.0071977 -0.31564 -0.19853 0.044287 -0.17438 0.075904 -0.68854 -0.19774 0.071718 -0.15147 -0.22645 -0.56253 0.057124 -0.099218 -0.17619 0.34794 -0.4955 0.38154 -0.88787 -0.55938 -0.20849 0.3135 0.16439 0.6077 0.49329 -0.73747 -0.55792 -0.33619 0.14691 0.4849 0.54179 0.066619 -0.088141 -0.078727 -0.17997 0.25686 -0.51498 0.19992 -0.29684 -0.034097 0.12563 0.03632 -0.023884 -0.19336 -0.19207 0.13773 0.26879
surface -0.29503 -0.73359 -0.11871 0.22546 -0.15974 -0.11253 -0.13412 0.46885 -0.33231 0.19954 -0.58928 0.26606 -0.34749 -0.17788 -0.39287 -0.063357 0.20275 -0.33796 0.48428 -0.29778 -0.015698 -0.33519 0.56591 -0.3074 -0.48268 -0.89903 -0.091111 -0.11051 -0.18979 -0.40145 0.028235 0.078716 0.07474 0.28416 -0.34071 0.2345 -0.064269 -0.34423 -0.1261 0.11219 -0.45218 -0.24959 0.49685 -0.49467 0.50924 -0.40852 -0.058228 0.38474 -0.54442 0.45813 0.23536 0.08492 0.54334 0.2039 -0.68988 0.48634 0.8394 -0.49904 0.084722 -0.23722 0.43678 0.44864 -0.22147 0.13232 0.28869 0.054598 -0.16954 -0.53147 0.7379 -0.014808 0.31297 -0.1099 -0.49285 0.13892 0.1038 0.15401 0.809 0.3851 -0.22308 -0.33039 -0.37264 0.05625 0.0063573 0.51575 0.86381 -0.16831 0.25735 0.038592 0.82421 -0.41587 0.53596 -0.12742 0.5447 0.37002 0.023465 0.044083 -0.073765 -0.033817 0.1298 0.32348
issue 0.2803 -0.13097 0.24359 0.14068 -0.26444 0.46171 0.04758 0.043585 -0.45281 0.22992 -0.026885 0.055602 -0.57733 -0.22236 -0.32015 -0.37917 -0.027369 0.25642 0.088717 -0.027005 -0.25403 0.20114 0.31664 -0.26045 -0.51174 -0.32475 -0.09754 0.61589 -0.033998 -0.31489 -0.18786 -0.61251 -0.19178 -0.060424 -0.045899 0.36957 -0.064678 -0.12254 0.063531 0.19222 -0.13588 -0.21949 0.6115 -0.18842 0.40768 -0.48637 0.058198 0.28363 0.78028 0.24235 -0.0031942 -0.25492 0.051842 0.066129 -0.25166 -0.20894 0.36137 -0.24225 0.083412 -0.67973 0.36624 0.060003 -0.4639 0.66077 0.102 0.16921 -0.22044 -0.47591 0.69507 0.36267 0.44265 -0.052399 -0.37533 -0.50931 0.22531 -0.54116 0.43059 0.20726 -0.72978 -0.68138 -0.052587 -0.24301 0.42422 0.89028 -0.013589 0.043968 -0.063827 -0.20334 0.31006 -0.013305 0.4262 -0.12646 -0.25824 0.10733 -0.49981 -0.42222 -0.11406 0.63196 0.42044 0.15442
